,0,1,2,3,4,5,6,7,8,9,10,11,12,13,14,15,16,17,18,19,20,21,22,23,24,25,26,27,28,29,30,31,32,33,34,35,36,37,38,39,40,41,42,43,44,45,46,47,48,49,50,51,52,53,54,55,56,57,58,59,60,61,62,63
0,0.11084364,0.10748198,0.14065415,-0.19798115,-0.42809036,-0.16033961,0.53467053,0.1798456,0.1772779,-0.666731,0.015041774,0.18997672,-0.32926336,-0.28316966,0.40679058,-0.21670619,-0.31496018,0.11592641,-0.73578835,0.16946353,0.16846687,0.024088383,0.08320272,-0.07152336,0.28022265,0.349909,-0.27427292,-0.053042796,-0.59482926,-0.051898457,0.17621332,0.32118186,0.8624747,-0.17967187,0.08953067,0.04882378,0.19751114,-0.18377942,-0.17150918,0.073108874,0.091381595,0.045270026,0.030991387,-0.022209726,-0.033802755,0.57824385,0.24144962,-0.12861963,0.3189211,-1.2424154,-0.13659272,-0.08396418,-0.013833777,0.4251538,-0.2935218,0.16966127,0.16584948,0.7161018,-0.027215743,0.43531263,-0.05066793,0.08879268,-0.26568064,1.005068
1,0.14625838,-0.04540795,0.2181504,-0.3283934,-0.098926194,-0.066222325,0.08833419,-0.26426467,-0.18553895,-0.23012923,-0.07467588,-0.25916567,0.06500758,-0.24524203,-0.087175526,-0.09109447,0.52229744,-0.10063398,-0.28383666,-0.50780565,-0.16207214,0.40717635,-0.17955695,-0.38410953,0.49625063,0.53817505,0.11974903,0.1341824,-0.5182892,0.17598236,0.25573727,-0.17709342,-0.0054201507,0.5001148,0.1973816,-0.09915917,-0.09688268,0.07853624,0.16774988,-0.052338902,0.08295424,0.27092016,-0.19574876,0.056929346,0.35762465,-0.21613345,0.38367918,0.023287406,0.021943474,0.00044646976,0.1684773,-0.020727115,-0.17580923,0.27250972,0.36979446,-0.18664049,0.21329597,0.11932829,0.24216986,-0.24642661,-0.30673212,-0.01859559,-0.38392153,-0.09297444
2,0.14039473,0.07491571,-0.11073491,-0.44387355,-0.035220228,-0.1767985,0.032476455,0.19463849,-0.18077083,0.3806229,-0.5175196,0.070722625,-0.086336665,-0.3814079,0.010788036,-0.7755,-0.3882062,0.1622314,0.2508471,-0.04714991,-0.32506803,0.027513597,-0.2997366,0.18744498,-0.29082137,0.4265145,0.109811895,-0.12454116,-0.45151472,-0.010720499,0.07939698,-0.21900223,-0.35675326,-0.16823773,0.028677713,-0.17631778,-0.6643451,0.09969158,-0.0049304417,-0.1722728,-0.09817944,-0.09482058,0.19160777,-0.10889621,-0.36566925,-0.88544655,-0.37349918,0.23499061,0.5727789,0.45064333,0.1476357,-0.2619703,-0.36695585,0.27069142,-0.23752272,0.20510247,-0.023895524,-0.4168539,0.32018596,-0.4293011,-0.31782594,0.0592145,-0.3625512,-0.8434731
3,0.18505934,-0.045789525,0.39444256,0.28700152,-0.19093014,-0.26677948,-0.092493854,0.6760528,0.021344561,-0.010285088,-0.3063457,0.16300614,-0.32162112,0.17758594,-0.1450037,0.457665,-0.3696381,0.2194226,-0.1331194,-0.32266915,-0.32171234,0.31727374,-0.17366694,0.50875705,0.099428,-0.24492128,0.61853105,0.27156112,1.0224873,-0.18449406,0.24777424,0.22148575,0.40541998,0.31712624,0.10012548,-0.07563523,0.4239984,0.18590075,-0.16049525,0.42521596,0.40722424,-0.2806144,-0.052176025,-0.26948366,-0.20680234,0.30085024,0.29625377,0.034123324,-0.24482526,0.116480336,0.28750646,-0.21184446,-0.25710648,0.42249548,0.27617168,0.36140236,0.23865864,0.41246024,-0.040785786,-0.55600595,0.18780895,0.12649028,-0.15806328,-0.15717241
4,-0.16855325,-0.5799322,0.12850976,-0.071129575,-0.48649606,-0.3689834,0.198249,-0.3619615,-0.13184185,0.20137954,0.018541543,-0.31794077,-0.024161946,0.04667022,-0.052473873,-0.20394143,0.0887148,0.022916164,0.20082955,-0.1109884,0.069261484,0.51600224,-0.4458183,-0.14507169,-0.17242406,0.041847914,-0.3079541,-0.14960964,0.49279398,-0.34059787,0.24274673,0.21647285,-0.18566687,-0.7003464,0.30099854,0.04884703,-0.017699283,0.62016934,-0.1805021,0.08066715,0.11396993,-0.2769101,0.0045510004,-0.04113538,-0.476999,-0.558629,-0.092768855,-0.025194697,0.22451752,0.0839901,-0.023016285,-0.0037794095,-0.07950496,0.43825525,0.4526,-0.050430186,0.04412034,-0.009298994,0.42088678,-0.26607713,-0.03520871,-0.028782127,-0.010793076,-0.101089165
5,0.32451695,-0.071918875,-0.20144437,-0.18637168,-0.10875281,0.01064102,0.4152136,0.26483613,-0.084660605,-0.17778815,0.1619791,-0.3403649,0.06754371,0.033893272,-0.41582817,0.58594567,-0.121343516,-0.07205794,-0.22134013,0.17315473,0.23678443,-0.050599016,-0.2898924,-0.4797035,-0.85922813,-0.29896122,-0.21340932,0.31274703,0.14799596,-0.11148135,0.30227625,-0.47971812,-0.6197446,-0.08686853,0.2218802,-0.11306045,-0.15170017,0.07541537,0.35174394,-0.05980533,0.13203612,-0.30920547,-0.64101815,-0.1015876,0.46592978,-0.2925138,0.22525741,0.38306653,-0.39803758,0.16800104,-0.049034543,0.2941015,-0.083672136,0.23000434,0.036120236,-0.07956599,0.1151416,0.00135288,0.08707988,0.039634205,-0.051681597,0.2253757,-0.19114277,0.15375032
6,-0.21204886,0.09750032,0.19674727,-0.11020429,0.21719913,-0.35619956,-0.2664946,-0.00615191,0.038400475,-0.08802637,0.14992586,-0.34913486,0.24625403,-0.028,0.031823926,-0.4487125,0.3408482,-0.05722457,-0.07604643,-0.013977198,-0.032841478,0.49407238,-0.2216338,0.16330762,0.13369125,-0.54256225,-0.22982027,0.06395,0.11855021,-0.5886609,0.30370075,-0.14531586,0.030564003,0.3590248,0.026037186,0.09758518,-0.2340239,0.19926222,-0.282313,0.2172229,0.19766629,0.06564574,0.03548898,0.31389356,-0.6812175,0.031168953,0.015971791,0.059799206,-0.17902467,-0.1413314,0.12624241,0.07754545,0.15703411,0.083116345,0.31987867,0.092315085,-0.051862918,0.19239041,-0.35457265,-0.2404481,0.07730629,0.15350021,-0.13577819,-0.009100088
7,0.14460877,0.093823165,0.29809994,0.37467408,0.21709843,-0.18322675,-0.16050577,0.0044860947,-0.021749623,-0.045189418,-0.11793069,0.075768776,0.18859978,-0.1534713,-0.024551151,-0.07727087,0.1242148,0.11162129,-0.005498776,0.08184578,0.103637286,0.022747334,-0.09355624,0.3593485,0.031576987,0.2830242,0.10555383,0.33261517,0.44090044,0.013343448,0.05887087,0.2849221,-0.3367578,0.4094452,0.61332417,-0.029499235,-0.021305447,0.090884164,-0.07793384,0.16282977,0.035084736,-0.23513655,0.0841484,0.41164574,0.240203,0.29116797,0.02226277,0.06279114,-0.11047725,0.52904,0.3281082,0.08576148,-0.41806257,-0.016253501,-0.31544554,-0.13805984,0.1437095,-0.10800801,-0.1420552,0.24320434,-0.043771863,0.18666367,-0.020184277,-0.17550708
8,-0.06825366,-0.040638115,0.050450146,0.122767106,-0.29883504,-0.44105238,0.08042911,-0.10282591,-0.30255193,0.017223444,-0.1585668,0.04034845,0.05717501,-0.5418937,-0.017060502,-0.113783,-0.30389124,0.2051658,-0.21968725,0.24531409,-0.18876395,0.19495139,-0.19468051,0.32987002,-0.018239792,0.026893241,-0.4169911,0.14654791,0.09140245,-0.4708103,0.4498868,0.2382896,0.18535519,0.21985652,0.0631691,-0.0070404653,0.14588937,0.010700338,-0.08344003,-0.039925106,0.21602233,0.03252299,-0.06084484,0.32693312,-0.25525224,0.035981707,-0.018736664,0.09457878,-0.14303474,-0.14555395,0.13183661,-0.18645044,0.027436804,0.2715494,0.2957552,0.038751442,-0.012711968,0.10308316,-0.08954359,0.026548525,0.18295099,0.27832928,-0.18345353,0.111063
9,0.4117837,0.22702834,0.4106575,0.19847491,0.051006537,-0.4647629,0.08735685,-0.06881253,0.0014549528,-0.39884803,-0.099685155,-0.01698868,-0.116922535,-0.052764893,0.06994414,-0.1588766,0.042563234,0.024161607,0.2744439,-0.1069775,0.1767991,0.033019125,-0.12385581,0.27176172,0.24381112,0.5517746,0.050386976,0.09253942,0.6641584,-0.39542612,0.25873187,0.18766387,-0.102407694,0.26608965,0.365161,0.062045455,-0.303023,0.0982637,-0.02954687,-0.33882606,0.112384744,-0.24037068,-0.06864225,-0.001226229,-0.01644616,0.26046342,-0.023123425,-0.16900016,-0.06261573,0.30355996,0.5514373,0.14651681,-0.059848502,0.28893796,-0.07923286,0.2497556,0.1792808,-0.0151475025,-0.26960242,-0.028873218,0.22363509,0.13180545,-0.06807641,-0.20368327
10,0.22834294,0.16969058,-0.21273008,0.0063810768,-0.25654176,-0.22290714,0.16476856,0.076506905,-0.030432198,-0.10089313,-0.16033766,0.17091046,-0.14503875,-0.5450172,-0.29424858,0.21963753,-0.20178105,0.10434443,0.16229795,0.21615422,0.1802525,0.6312137,-0.552035,0.04334833,-0.24875897,-0.13739125,-0.24091442,0.22749668,0.2619967,-0.29481262,0.25618514,0.66276604,-0.13222456,0.37480038,0.455247,-0.17347643,0.25453416,0.3093114,-0.1809609,0.18286432,0.10423637,-0.13839832,0.20289066,0.076426566,-0.12549266,-0.0320041,0.5015471,0.009498091,-0.0142015265,-0.15885603,-0.0013728333,-0.27742055,-0.118429095,0.239394,-0.18654501,0.2753802,0.048883345,0.11597684,-0.30239293,-0.18713632,-0.23289624,0.26791582,-0.022946233,0.04896445
11,0.2532124,-0.60563767,-0.5596491,0.022918854,-0.051664144,-0.39843744,-0.13047537,0.23253551,0.13955176,0.11130453,-0.047199007,0.28291953,-0.012929168,-0.028922413,0.039537065,0.14315985,-0.096873306,0.18541864,-0.16578144,0.19479112,-0.061016437,-0.110648856,-0.110487156,0.45920366,0.6191703,0.09558356,-0.29488382,-0.19005609,-0.16174325,-0.44676304,0.43013093,0.3728776,-0.05818224,-0.08408313,0.13667493,-0.3654329,-0.4071741,-0.13296317,0.23735386,-0.16340695,0.300348,0.09475496,0.036023486,0.50352436,-0.62902045,-0.06395989,0.006277503,0.004389389,-0.20826727,0.058282826,-0.06380788,-0.2734481,0.11541384,0.37348554,0.19523367,0.24846694,-0.28383002,0.29527155,-0.15032646,0.28130054,0.26400974,0.13565499,-0.18111414,-0.15059416
12,-0.17376925,-0.75336725,-0.0715228,0.07503593,0.4717869,-0.43317783,0.005909442,-0.2401209,0.091993436,0.24986777,-0.0137007395,0.12952328,0.433457,0.07979089,0.15276419,0.20952414,0.6962957,0.10080192,-0.23770879,0.33926252,-0.28167924,0.5624759,-0.19179294,0.54057825,1.0963377,-0.16815813,-0.24976385,-0.09607045,0.35633665,-0.5134522,0.2761274,-0.40936965,0.19939934,0.097429484,-0.23138964,-0.17646784,-0.3606401,0.29233354,0.36795655,-0.5137271,0.28227147,0.0507013,-0.12742886,0.51398456,-0.814787,-0.14041767,-0.055880103,-0.1879539,0.4050446,-0.1681777,0.38454717,-0.13682108,0.09301129,0.14716412,0.6143472,0.11029098,-0.14458784,-0.008900006,-0.1233016,-0.033511348,0.16019012,-0.06448251,-0.07406874,0.13629271
13,0.21983595,0.2528599,0.35700145,-0.081303775,-0.48536077,-0.16734146,0.15457548,-0.18233301,-0.22535889,-0.534677,-0.023301704,0.14174211,-0.27896497,0.35127655,-0.34073776,-0.27262512,0.10020548,0.20124152,0.37065318,0.15689404,0.0710629,0.12984921,-0.3161494,0.3892024,-0.06881445,0.6920092,-0.056725938,0.69372326,0.14270073,-0.035979684,0.22016689,0.17866488,-0.10947678,-0.0454212,-0.20952475,-0.37415785,-0.3418347,-0.21243872,0.0594462,-0.026603146,0.14061025,-0.064910114,-0.15653233,-0.6374212,0.18656951,0.083177134,0.5573932,0.20487216,0.35859457,0.16250026,-0.084789574,-0.4450275,-0.29754886,0.3448824,0.20507072,0.4621308,-0.15922092,-0.066062845,-0.2616341,-0.2495336,-0.19222686,0.14788882,-0.32152602,-0.22099236
14,-0.04543426,0.112585835,0.07067225,0.28225443,0.17168522,-0.10708307,-0.14583315,-0.063629754,-0.1547502,0.04442688,0.00039583584,-0.14150178,0.019152775,-0.47868922,-0.09800705,-0.11608036,-0.31682697,0.0944898,-0.19970617,0.09977578,-0.12138229,0.14304996,-0.23416293,-0.20954023,0.23472337,-0.40882608,-0.1560544,0.13079563,-0.013889729,-0.26369953,0.06225502,0.13974793,0.13722461,-0.061675236,0.6888701,0.017105768,0.3460695,0.17578647,-0.13058846,0.14133725,0.24566309,-0.09029557,-0.2938882,0.11186286,-0.052934982,0.43469924,0.08451065,-0.70048887,-0.31289428,-0.19250745,0.035429556,-0.062392645,0.15835796,0.07882781,0.06619292,0.29282096,-0.060545743,0.110198714,0.30697155,-0.12880528,0.030892355,-0.17017765,0.003526855,-0.28717214
15,-0.20024228,-0.4053673,-0.1158409,-0.07315755,-0.28914106,-0.19003884,0.03683952,-0.032967184,-0.105321616,0.33443746,0.30478445,-0.067322694,-0.033862498,-0.48243013,-0.1192865,0.30606303,0.39484113,0.31088963,-0.123916306,-0.108160906,-0.21227732,0.13800932,-0.08957405,0.11494851,0.3723334,-0.3726366,0.32375234,-0.046141446,-0.03878796,-0.43252602,0.3701478,0.46121883,-0.15727013,0.48006293,0.3236491,0.21878207,0.03878275,-0.18051066,0.3226738,-0.23928933,0.05098235,-0.17539345,-0.42133883,-0.08218322,-0.16602212,-0.51328117,0.29742852,0.10757488,-0.29740092,0.32022277,0.22707577,0.0068798466,-0.2785168,0.20176005,0.1413721,-0.5630165,0.038106635,0.34009168,0.21667525,-0.11652569,0.18212062,0.032115635,-0.112053834,0.23086426
16,0.16244964,0.36773038,-0.5925804,-0.2364785,-0.15775473,0.05341632,-0.19550067,-0.025272379,0.077748336,0.008618627,-0.05665575,-0.20343614,0.34517238,-0.008889708,0.02701683,-0.32608503,0.10225828,0.11182115,0.28509617,0.37815338,0.28920856,0.35521355,-0.23135181,-0.33342582,-0.044435065,-0.35272318,0.15155457,-0.06305863,-0.1880283,-0.26125064,0.21743867,0.21655828,0.0681702,0.097489186,-0.2037683,-0.009789727,-0.28419486,-0.4375887,-0.0068411017,0.3148768,-0.22011687,0.049350005,0.041274678,-0.17223683,0.29373664,0.07512391,0.41646624,0.032217003,0.17135221,-0.06164638,0.20136145,-0.1857736,0.17433403,0.045509677,0.20498496,-0.10815782,0.1786494,0.07489116,0.12955719,0.16924715,-0.059653662,0.21457395,-0.29545677,0.0017445188
17,0.24700686,-0.26617756,0.060505126,0.2696341,-0.3216293,-0.7330969,0.18057548,-0.012192086,-0.14162374,-0.0036075297,-0.28457573,0.12698238,0.060108468,0.036473677,0.13575627,0.009945472,-0.24919923,0.47231075,0.1525297,0.094585806,0.059766784,0.3971367,-0.1494663,0.098470174,0.39787585,0.13712074,0.22017798,0.22711724,0.1964969,-0.70642495,0.49640632,-0.07186658,0.17916405,0.41568315,-0.027092677,-0.0072764526,0.043699797,0.04438544,-0.47475767,0.0044258777,0.0167985,-0.15317549,-0.04279031,-0.036959667,-0.26677212,-0.24566256,0.06826709,0.22961722,0.12688746,-0.020186337,0.4515309,-0.03279327,-0.37513882,0.27743837,0.3315495,0.16660318,-0.071110174,-0.05770803,-0.2652124,-0.053315163,-0.12739184,0.14563866,-0.104592346,-0.0028304923
18,0.30375293,-0.34559807,-0.32399657,-0.039571162,-0.24137504,-0.2845826,0.2139372,0.07673897,-0.24696696,-0.41425422,0.5077601,-0.22347821,-0.15032768,-0.41246617,-0.06944758,0.40792084,-0.26445717,0.1872299,0.44470066,-0.29829887,0.11854288,0.40175378,-0.49012333,-0.36193612,-0.28104603,0.0014254249,0.024113854,0.32292444,0.41028363,-0.25205153,0.3072269,0.09568808,0.09727579,-0.087017186,-0.01547399,-0.058522094,-0.051381767,-0.45556986,-0.06436571,-0.19617638,0.046119336,-0.23412123,-0.43172228,0.4833109,-0.70938194,-0.269203,0.39685822,-0.14877304,-0.16493094,-0.17636529,0.4259597,-0.08904088,-0.28197148,0.112459205,0.51053923,0.02233163,-0.021629645,0.28930336,0.22892882,-0.4812256,0.11745737,0.41774958,-0.22600506,0.244278
19,-0.13198112,-0.45911488,0.009109467,-0.039495174,0.00090228353,-0.48287103,-0.0073095956,-0.1278267,0.07821875,-0.30027765,-0.109000415,0.26281396,-0.007099557,0.18412063,-0.14261428,0.18330236,0.20351842,0.081710815,-0.0868728,-0.5994365,-0.09611966,0.32005224,0.17110291,0.20909292,-0.015278955,0.10946608,0.045625377,0.09748909,0.17042841,-0.37062675,-0.076078445,-0.12096203,-0.13195704,-0.4285512,0.14093272,0.14336725,-0.16150641,0.049637493,-0.39214715,0.060407083,-0.0015845187,0.009451069,0.19065416,-0.071249075,-0.39477652,-0.6395824,0.3129118,0.20463258,0.07665342,0.27568406,0.3390532,-0.20939437,0.061511923,-0.44459963,0.14785466,0.07614253,0.1414854,0.40119,0.05087437,-0.17507367,0.080793835,-0.05021036,-0.09997409,-0.046223495
20,-0.13113514,-0.48523992,0.10679562,-0.14918242,-0.16190048,-0.6908017,0.29310036,-0.20701282,-0.502108,-0.06344831,0.34617576,-0.0769519,-0.09229317,-0.5769031,-0.21644697,0.37693435,0.043858726,0.2856493,-0.04887499,-0.09705372,0.14668936,0.33904278,-0.20649071,-0.15010297,0.2700531,0.12480414,-0.016611477,-0.070848,0.18190949,-0.7498514,0.36639884,0.102340996,0.107546434,0.29089457,-0.26132727,-0.13732164,-0.06453617,-0.1703904,0.22208075,-0.3693243,0.12546943,-0.302138,-0.11729556,0.29196092,-0.26502386,-0.07555448,0.25211734,0.247078,0.042495657,-0.029150788,0.40754077,0.089854315,-0.1879204,0.29614055,0.41631153,-0.025459586,-0.03755708,-0.15429394,-0.32796162,-0.12692764,0.06152948,0.19087587,-0.0032285012,0.15406106
21,0.39035547,0.11914544,0.047358338,-0.081478834,0.08659139,0.7789216,0.13155937,-0.059230987,0.05453192,-0.08901185,0.2113019,-0.13457239,0.20018207,-0.019773886,0.010472615,0.06671091,-0.1169404,-0.30239785,0.26454648,0.37370488,0.22052741,0.004056458,0.54320616,-0.36253497,-0.016690925,-0.09824972,0.42107657,0.4235262,0.044523273,-0.05550186,0.17006822,-0.45871264,0.034630667,-0.44248468,0.7013545,0.24904071,-0.39787245,0.26659,-0.016720645,0.18338986,-0.11081112,-0.5582135,-0.26338562,-0.5392904,0.6054755,0.22581784,-0.16759507,-0.22944176,-0.08459905,0.39857286,-0.15634215,-0.1840172,-0.07902205,0.21156304,-0.053778183,0.21986006,-0.50206566,-0.3689142,-0.045604452,-0.14966473,0.03656013,0.33598864,0.05252755,-0.010764993
22,0.066488326,-0.26632833,-0.32153493,-0.07750006,-0.3335587,-0.2883048,-0.051320728,0.5180915,-0.14637843,-0.17638342,-0.44836235,0.0057729646,-0.2152753,-0.07043667,0.073907875,0.5136064,-0.38637784,-0.07055699,-0.08033234,-0.0058417534,-0.12742515,0.33816186,0.6290979,0.1732061,-0.040665414,-0.029331446,0.09061667,-0.2428957,0.20672739,-0.2920562,0.06894423,0.28508982,0.60580605,0.32589608,0.17324431,0.008713854,0.08938904,0.12853494,0.0317794,0.30446902,0.04461937,0.09731207,-0.29209074,0.13051118,-0.45204538,0.49153778,0.2606905,-0.08754579,0.35024616,0.038363114,0.14971331,-0.044869527,-0.0048691332,0.44804162,-0.16855471,-0.06651581,0.30087274,0.046653938,0.018553492,-0.315597,-0.09930716,0.08154417,-0.04978368,-0.047908027
23,0.51458025,-0.015287764,0.0012305821,-0.23959364,-0.46385446,-0.5818622,0.15456739,0.04934451,-0.25429225,0.009068192,-0.24713415,0.4781184,-0.12780583,-0.46812356,-0.28487787,0.19573997,-0.039336484,0.25253975,0.39058957,0.1036833,0.036612827,0.3803377,-0.4561371,0.014667314,0.119111255,0.20882502,0.02650897,0.36472446,0.3401217,-0.635874,0.31807935,0.17374708,-0.09401037,0.6567769,0.09501146,-0.11181953,0.19097532,-0.39625704,0.04198663,-0.050277136,0.13737461,-0.401806,0.10262909,0.18410647,-0.35610163,-0.22380047,0.1492387,-0.15147184,0.031433176,0.1076236,0.51580435,-0.14249581,-0.36047998,0.18738966,0.28737018,0.09725085,-0.3486726,-0.15038262,-0.1436805,-0.35122088,-0.17220733,0.39340648,-0.35650674,0.17937788
24,-0.2740498,-0.30281508,0.52052724,0.091709964,-0.10283569,-0.5013925,0.010790506,0.081737116,0.1178293,0.18706557,0.14853969,-0.14309116,0.4243241,-0.24638177,0.12199472,-0.25033176,0.096865155,0.22796103,-0.2541444,0.19110131,0.05853718,0.27844265,0.088579394,0.05306412,0.21849337,-0.39967313,-0.22261429,0.33124846,0.09177101,-0.5698393,0.16648461,0.003404186,-0.2181051,0.121180184,0.6137419,-0.04388744,-0.4872013,0.19502524,-0.4504385,0.17210144,-0.27499065,-0.465709,-0.054035675,0.53187555,-0.39767423,0.12334585,-0.0857793,0.07568888,0.28191364,-0.03583889,0.59335107,-0.118932635,0.21095769,0.08605672,0.18912612,0.23339114,-0.062838286,0.23571943,-0.36289868,-0.27868423,0.08578672,0.2667146,-0.020542275,-0.31057283
25,-0.09330946,-0.3048253,0.17573851,0.20626853,0.13578305,-0.29470122,-0.22134121,-0.08976895,-0.20343083,0.12059096,0.66983706,-0.6668533,0.292684,-0.012128649,-0.07812368,0.06793496,-0.023907049,0.32681704,0.20193256,0.085167125,0.02965014,-0.10341245,0.46059805,-0.0042574606,0.24711111,-0.5050084,0.27307948,0.36664966,0.2555855,-0.35059327,-0.03719966,-0.5717111,0.22881313,-0.271254,0.5600521,-0.3172305,-0.4909081,0.18057449,-0.0005302793,0.12025922,0.22188586,-0.19683266,-0.047624916,0.19366857,0.6181579,-0.33538413,-0.29174092,0.36455363,0.15882395,0.34624404,0.10496925,0.14263633,-0.11158297,0.24880947,0.17520967,-0.11124525,-0.08480184,0.032367233,0.1584871,-0.19007434,-0.08837748,0.2808118,0.14501105,-0.31412524
26,0.06636308,-0.05438567,-0.066909365,0.06950431,0.23044816,-0.08580194,0.019796614,-0.14294055,0.10929208,-0.17536299,-0.29449192,0.0020990751,-0.048190806,-0.4760266,0.428603,-0.002299766,-0.10985448,-0.10556073,0.110421464,-0.07351756,0.1811938,-0.14574908,-0.01296086,0.13101965,-0.24528627,0.28876096,0.015845396,-0.38632545,-0.20938492,-0.0615573,0.21019861,0.08725704,-0.062378176,0.21187475,0.3065666,0.016564185,-0.024139835,0.23389255,0.12792456,0.07596948,-0.021867743,0.23741864,0.32469097,-0.1840321,-0.22779132,-0.25460947,-0.2797918,-0.23002453,-0.21006997,-0.15212412,0.30954736,0.29654866,0.121666744,-0.19401349,0.029711837,0.0056219604,0.011164366,-0.061809838,0.27697024,-0.24792357,0.04113597,-0.0062883734,-0.06585209,0.027517673
27,-0.42441982,0.16002277,-0.14176045,0.020678135,0.10182687,-0.5614088,0.10600545,-0.2892076,-0.24829312,-0.10475117,-0.35638806,0.13237043,0.04830609,-0.27683505,0.1214354,-0.01402142,-0.23762539,-0.060666356,-0.20779373,0.29693365,-0.0014231991,0.53765386,0.13966165,0.11638648,0.7637612,0.21029769,-0.29805717,-0.2705413,-0.1346473,-0.60272664,0.31805322,0.11411716,0.07691682,0.07675885,0.23894063,0.00084268337,0.18060657,-0.00524305,-0.17320478,-0.14330797,0.3323442,0.3266395,0.19169764,0.051971436,-0.2623908,0.35962963,-0.0040375423,-0.20643583,-0.2180742,-0.25602847,0.2924695,-0.049182605,0.21668813,0.2178897,-0.21917358,0.27341852,0.15690416,0.4600982,-0.1999967,0.13223143,-0.23846887,-0.044546865,-0.26911294,0.01585433
28,-0.059504505,0.7608127,-0.19268347,0.030647805,0.01951411,-0.040522985,0.7438642,0.3490145,-0.41836035,-0.7297631,0.08041987,-0.19917376,-0.31895953,-0.3628707,-0.1441736,-0.079460956,0.04275273,0.46617553,-0.27633536,-0.5400649,0.63968307,0.4666179,-0.09331679,-0.20848118,0.07401117,0.3199544,0.16039413,0.1787944,-0.025350947,-0.26762548,0.09669488,0.494219,-0.49433917,0.19238918,0.57784706,0.19097118,0.35505992,-0.38673925,-0.8817975,-0.39831758,-0.10080697,-0.42435837,-0.066688925,0.44081154,-0.16469848,-0.96720415,0.2346039,-0.017908236,0.025641501,-0.7216455,0.20152828,-0.15985286,-0.52301663,0.8754599,-0.20652057,-0.4834233,0.53453183,0.48691258,0.07789506,0.08789197,-0.27966964,0.4578597,0.1044411,0.24085517
29,-0.18559328,-0.010597037,-0.30623886,0.017982408,-0.15542915,-0.2555295,0.20436928,0.22126257,-0.25448716,-0.3727797,-0.09229901,-0.10276507,0.0785593,-0.25143412,-0.05186291,-0.2567499,0.2617707,-0.050594296,-0.47030377,0.52064174,0.27197275,0.35615566,-0.18729421,-0.14772582,-0.4123048,-0.033547096,0.21476755,0.47954914,0.35031193,0.40915564,0.12217068,-0.11771894,-0.78936374,0.20035866,0.17130548,-0.14750972,-0.22139806,0.2207221,0.6083573,-0.042018726,-0.02792674,-0.22565173,0.41596314,-0.28943115,0.25920525,-0.5233402,0.4917939,0.32826656,-0.27922148,0.100644246,0.22090772,-0.4704429,-0.12718514,0.102534115,0.3402757,-0.3784824,0.33643052,-0.20397925,0.17725483,-0.025973594,-0.33905256,0.27692214,-0.0817806,-0.100498475
30,-0.049836945,-0.10544155,0.2532003,0.1294303,0.1324729,-0.06948946,-0.619202,-0.58493704,0.40142688,-0.03665032,-0.06120375,0.0011964847,0.27096868,0.12407214,0.30227566,-0.2859553,0.06939234,-0.15504462,-0.39109424,-0.31729057,-0.18080497,0.40938053,0.107668504,-0.07503682,-0.4293142,0.08269589,0.3906588,-0.35530108,-0.40814215,0.115845755,-0.30350912,-0.037233,-0.26803985,-0.09481107,-0.27898544,0.4659925,-0.11510082,0.51079494,0.1914357,0.18194583,-0.40964183,0.21518593,0.2725826,0.49968538,-0.010437486,-0.051733714,-0.3050315,-0.16200233,0.06441263,-0.43438587,0.00440888,0.16234161,0.43879208,-0.47862324,0.19765158,0.023409998,0.09554216,0.16162992,0.07378225,0.44964603,0.049806505,-0.3629306,0.6714979,0.36018467
31,-0.09589163,0.0074428953,0.03220022,0.19041929,-0.0909633,0.05966349,0.21419789,-0.22858691,0.024309723,-0.39167163,-0.27445638,0.13395482,0.12703843,-0.11008743,-0.10533569,-0.5803243,-0.1736452,-0.18445899,-0.20621787,-0.102052405,0.026486978,0.24182543,0.13061875,-0.056278046,0.1394463,0.59609205,-0.1690782,-0.07229942,0.34466973,0.30039865,0.0427532,0.5259561,0.048477106,0.21193568,0.04675572,0.0818652,-0.13317835,0.10063576,0.06671564,0.03776828,-0.4419552,-0.18656862,0.22691977,-0.18933362,-0.10280561,-0.20794298,-0.07083119,0.8625435,-0.2992512,0.42075297,0.3623101,0.15360466,0.01525326,-0.2322323,0.04204648,-0.10393199,0.10761207,0.08685151,0.23129876,-0.2469659,-0.015634121,-0.045670666,-0.06943938,0.22747059
32,-0.1288219,-0.44027928,0.7034761,0.3122992,-0.119511575,-0.4311109,-0.0044840975,-0.4922892,0.12553078,-0.13381025,0.34039786,-0.38869852,0.4002554,-0.5667115,0.10036112,0.24027944,-0.06477745,0.25345898,0.0763984,-0.004349257,-0.033946667,0.36059955,0.35446486,-0.1470393,0.5502403,0.0026773163,0.27827546,-0.028513143,0.31610706,-0.430034,0.3227681,-0.28449893,-0.15440513,0.4457064,0.040828858,-0.17052524,0.1870337,0.014830385,-0.20513569,0.20506822,-0.18965203,0.051753547,-0.17559673,0.568942,-0.30358368,0.15035084,-0.014670227,-0.2405088,-0.49418944,-0.18344828,0.08919409,0.1278653,-0.04454493,0.31383368,0.6618117,-0.2618353,0.08007908,-0.1473739,-0.70188975,-0.21688314,-0.0050032237,-0.08164927,-0.051704645,0.3732983
33,0.5560993,0.46388337,0.2751148,-0.14613526,-0.17754744,0.14245908,0.41429257,-0.0019662667,-0.19516733,-0.38833052,-0.18388496,-0.1465888,-0.0731171,0.014620337,-0.29701266,0.05612053,0.021299314,0.01786729,0.16036087,-0.7834379,0.10922026,0.11195951,-0.103622645,-0.20504485,0.0484717,-0.023828136,-0.015846651,-0.49524745,0.47206882,0.05120448,0.34351066,0.05633016,0.22038482,0.29965734,0.18828352,-0.1623024,0.022752391,0.34547696,-0.60362136,0.051265094,0.008050964,-0.48984846,-0.010207187,-0.25733525,0.3406475,0.21349078,-0.15873957,0.006320301,0.56602925,0.64858776,0.093054,-0.025285691,-0.20936657,0.26328537,0.4266717,0.24568677,0.0827838,-0.25906926,-0.2132595,-0.48850495,-0.21177986,0.17896785,-0.14028446,-0.1660078
34,0.25835353,0.18709813,0.17613542,0.110537104,0.28727365,-0.0067037093,0.25046232,0.32930648,-0.11717802,0.21289925,0.24519493,-0.19893904,-0.45037064,0.1304736,-0.2607477,-0.3933414,0.25347963,0.017536758,0.57956934,-0.22202478,0.41228014,-0.35229832,0.022233726,0.10330133,0.39739034,0.28381664,-0.24175796,-0.03441003,0.3649545,-0.22301775,0.3372773,-0.25230882,0.18998542,-0.033201978,0.5143686,-0.015990905,0.16559133,-0.20149651,-0.9611179,-0.090045035,0.014242599,-0.5381794,-0.4209484,-0.20509489,0.23480661,-0.076545216,0.21890454,-0.07652805,-0.081384316,-0.30991676,-0.3894181,-0.07559869,-0.30498853,0.111215435,-0.34820253,0.32858843,-0.11994889,0.17794687,0.23949702,0.012310462,0.061993636,-0.11571556,0.2554431,0.06480074
35,0.4081023,-0.18865481,-0.11606244,0.13733074,-0.20515832,-0.5948345,0.18677206,0.086101584,-0.07044819,-0.08529127,-0.24309304,0.21335733,-0.15954709,-0.06475353,-0.14541966,-0.08833914,-0.0111813275,0.22354849,0.060498804,0.19784737,0.082616955,0.4346361,-0.19255641,0.094512574,-0.09249099,-0.19329546,-0.17523366,0.03660059,0.5757089,-0.60608256,0.29785347,0.1770078,-0.17845948,0.2314434,0.33596703,-0.43346968,0.00075055176,0.12032773,-0.40052715,-0.19463791,0.10346424,-0.3586725,-0.12984186,0.18539152,-0.60410064,-0.4106116,0.20984153,0.4078079,0.046505205,0.058106963,0.26631695,-0.07638423,-0.20024174,0.3117486,0.60238004,0.094409674,0.036591917,0.03439331,-0.18694651,0.11267581,-0.2853449,0.2594194,-0.13943301,-0.019385444
36,0.14784843,-0.031599972,-0.22287945,0.10240932,0.6351139,-0.001559618,0.11439591,-0.2987486,0.15680717,-0.061441954,0.33608058,-0.43118033,0.4885329,-0.22218557,0.71509874,-0.34337777,-0.23978482,-0.1368536,0.15414457,-0.11751809,0.33786944,-0.16385561,0.03243901,-0.4078693,-0.07944491,-0.33823317,0.5788634,0.10717378,-0.512008,-0.21280174,-0.13127223,-0.104859374,-0.1955647,-0.27921587,0.03698821,0.14954928,0.24199738,0.19101346,-0.07396113,0.14721902,-0.021651315,-0.39682996,0.16381654,0.37962773,-0.6432872,0.53681284,-0.09650062,0.029208796,-0.19989482,-0.015428758,0.12345233,0.6416599,0.4079986,0.058282148,0.19794373,0.30494815,-0.06252413,0.17643842,0.15164302,0.23030642,0.09943325,-0.12928158,0.15320435,-0.029588373
37,0.3443298,0.11653125,-0.1543247,0.11279898,-0.34523493,-0.6517868,0.36559078,-0.0068978015,-0.1329672,0.04435269,-0.6721586,0.19493027,-0.15531726,-0.3481108,-0.25219297,0.019031743,-0.555474,0.21028455,-0.042987615,0.023834439,-0.22566268,0.41899088,-0.41749555,-0.026189711,-0.25306648,0.0026782455,-0.36744136,0.16744596,0.39605138,-0.583039,0.4186869,0.34260055,0.32744756,0.33955583,-0.07940422,-0.00985771,-0.10283795,-0.19567995,-0.2707478,-0.023369044,0.14241855,-0.083639696,-0.21989405,-0.23955323,-0.5274162,0.0406826,0.24766697,0.05843449,0.14656608,-0.11039179,0.09157918,-0.18369266,-0.16593353,0.26231432,0.19777136,0.35383788,0.18099283,0.17406951,-0.11988325,-0.36302438,-0.13653101,0.32747775,-0.17823169,0.04889391
38,-0.05550619,-0.18183893,-0.015826944,-0.28354737,-0.14927138,-0.20808162,0.18821532,0.09794185,-0.32737508,0.22670443,0.5639882,0.09105865,-0.18871585,0.0030178041,-0.37892273,-0.013290882,0.4544519,0.3991529,-0.3753857,0.15695384,-0.017243134,-0.14371027,-0.16520776,-0.044383157,-0.12349341,-0.13855709,-0.027762486,0.11615255,-0.27262485,-0.30083963,0.07275752,0.09311372,-0.33761257,0.22753592,-0.47628772,-0.28498298,-0.0664685,-0.35996157,-0.06361542,-0.21820273,0.17080499,-0.34492305,-0.32186773,0.023144964,0.18212803,0.65478253,0.06772613,0.20028855,0.42041948,-0.25956628,-0.29254937,-0.056832496,-0.18359578,0.37713724,0.48289064,0.27409106,-0.07510958,0.33534732,-0.11197679,0.1957387,-0.17880653,0.4304484,-0.4465896,-0.23238347
39,-0.12166022,-0.7483785,0.18174787,0.84851164,0.08620796,-0.73333323,-0.36883923,-0.49296984,-0.10576152,-0.33801097,-0.7377401,-0.34966922,0.38568872,-0.14948788,0.65976036,0.15688518,-0.50856096,-0.07025663,-0.32052338,0.18272246,-0.6396113,0.06581316,0.31110367,-0.20369464,0.6324463,-0.5738764,-0.1655226,-0.029993791,-0.005743334,-0.73705053,0.33010474,-0.29819873,-0.21899328,0.043586932,0.29463628,-0.10699498,-0.23016906,0.80004185,-0.45197216,0.09019032,0.4044723,0.11860833,0.34462196,0.686958,-0.31962872,0.2536889,-0.13419609,-0.06518344,-0.48293325,-0.29494336,0.41874295,0.25917837,0.42614678,0.28269586,0.12905318,-0.16074224,-0.3347118,0.6278293,-0.32289103,-0.18236496,0.31485775,-0.081236064,0.10596593,0.08482968
40,0.15720503,-0.2416507,0.02065023,0.017185733,-0.25847557,-0.65575737,0.13941227,0.06864997,0.002500945,-0.100931615,-0.54520327,-0.028832588,-0.06648486,-0.29673615,0.03314104,-0.28012666,-0.32323948,-0.10397557,-0.15494572,0.29830423,-0.12904426,0.49595606,-0.39185196,-0.20680135,0.46153447,0.11034849,-0.35197076,-0.35373518,-0.17736423,-0.73694175,0.24851811,0.11976092,-0.04263992,-0.026955307,0.021272521,0.07282877,0.053039942,-0.11434678,-0.34051237,-0.13187703,0.09437732,0.03812749,0.112589434,-0.037005458,-0.41278756,-0.024650667,-0.18450604,0.21031623,-0.16458413,-0.26765355,0.49294513,-0.18550886,0.082852416,0.24146278,0.4804634,0.12099849,0.31660512,0.14332849,-0.3185695,-0.033867586,0.14611307,-0.025126075,-0.06711203,0.59637994
41,0.0647027,0.31415918,-0.7341737,-0.15688881,0.08595982,-0.13910078,0.08180473,-0.23256065,-0.2904905,-0.30301228,-0.33509544,-0.10066047,-0.14258362,-0.48821506,-0.2101117,0.03243571,0.111585,-0.24564259,-0.30262217,0.3618822,-0.05133149,0.34156537,-0.33726504,-0.33688357,0.0033065497,0.7506447,0.12061138,0.0077866726,-0.18960641,-0.16850929,0.11941768,0.3987098,0.25312382,0.62696797,-0.19654275,0.21973842,0.5036577,-0.09270548,-0.040188022,0.1317092,-0.15927124,0.18709792,-0.04241217,-0.6211378,-0.10611053,0.67236185,0.16168147,-0.06890961,0.293516,-0.36405286,0.23131354,0.17181788,-0.19901559,0.41003793,-0.46855012,0.08232916,0.37807995,0.43439484,0.6910787,-0.04271309,0.2260534,-0.08093218,-0.1133629,0.4225166
42,0.015777932,-0.28231037,0.37685865,0.41173998,-0.19450407,-0.6328357,-0.078402385,0.09637289,-0.0039302437,0.27551386,-0.45042598,0.023298228,0.11228169,-0.3926084,0.017220387,-0.14037697,-0.70855266,-0.039176714,-0.29060522,0.102208465,-0.31313214,0.5378588,-0.16285633,0.13344097,0.491044,0.40200207,-0.28899255,0.21838123,0.01592095,-0.95541024,0.5191621,0.14276242,0.32238904,0.40159097,0.11932532,0.17769292,0.2430182,0.30418807,-0.30555508,0.21498029,0.007961379,0.3565828,-0.060454663,0.11092142,-0.3129711,0.3772905,0.36149457,-0.06924507,0.16136627,-0.45127538,0.20383778,-0.1482885,0.072388105,0.38743937,0.06183349,0.4245671,-0.1611513,0.4610754,-0.2743746,-0.34950206,0.04647978,-0.03092274,-0.003858819,0.16456696
43,0.22342965,0.09455957,0.35587654,-0.3176125,-0.34061572,0.057224512,0.29136518,-0.0051666554,-0.43147066,-0.024631975,0.38229024,-0.07873247,-0.2296871,-0.49352854,-0.24696185,-0.2262084,-0.34078926,-0.095614,0.21473153,-0.24777257,0.18636908,-0.15086152,0.21069755,0.69228435,0.3241089,0.54839456,0.511252,0.75576895,0.35493255,0.001768446,0.36966696,0.056334067,0.17487368,0.91051674,0.25871053,-0.5850019,-0.14844073,-0.5125744,0.46991292,0.06713267,0.3490418,-0.28311628,-0.6516579,-0.27625117,-0.1283023,-0.32509428,-0.14396183,0.12474969,0.21296942,0.4630864,-0.2073676,-0.028000636,0.31879634,-0.0403773,-0.22604139,0.1957231,0.52532756,-0.5082283,-0.36056945,-0.23646958,-0.05597465,0.3130813,-0.18285063,-0.31141734
44,0.18254128,-0.1093996,0.4938754,0.3056649,0.05657935,0.041942652,0.538818,0.29013819,-0.37286544,0.15596806,0.3882531,-0.5733751,-0.21746929,-0.30967173,0.0054427995,-0.68421334,0.38432172,0.013787187,-0.46152458,0.23969331,-0.3308359,0.15878044,-0.3065805,-0.10020018,-0.82099044,0.1583532,-0.6899048,0.34618264,0.2567517,-0.3102061,0.6478632,-0.46003965,0.10480566,0.08552918,0.9445694,-0.2000575,-0.012687167,1.0416038,-0.741486,0.0011400239,-0.38924387,0.05974582,-0.2515182,0.00083048234,-0.15012468,0.041435298,0.5701886,0.042350993,0.34479436,-0.31814903,-0.27413866,0.539182,-0.10750324,0.72901076,0.14044894,0.2586901,0.18132629,0.92427695,0.21943203,-0.5754121,-0.338622,0.4280317,0.37970302,-0.43934104
45,0.18647212,-0.20058058,0.1782056,-0.12964341,0.11829753,-0.22760221,0.30307758,-0.03758429,-0.07771171,0.11044587,0.13812733,-0.21721037,-0.10816086,0.07818212,0.013960496,0.009009204,-0.27947927,0.17457302,0.10039615,0.039966617,-0.41171435,0.18199858,-0.18000694,-0.5025212,0.07139764,-0.19392592,0.04151345,-0.11664904,0.073465616,-0.4333188,0.39016187,-0.684409,-0.005267526,-0.12246128,0.39470178,-0.15365976,-0.047531817,-0.020086927,0.44454864,0.089711465,0.12677202,0.037477754,-0.28018492,0.4205554,-0.16981798,0.20773368,0.17782182,0.2970584,0.29240075,0.04984605,0.18226336,0.07453388,-0.12138082,0.32367817,-0.017058065,0.15984027,-0.23517309,0.094461605,0.31518096,-0.26320684,-0.106371626,0.25238365,-0.3557615,0.05218129
46,-0.5536291,-0.5467786,-0.29512003,0.5851596,0.37175897,-0.7987821,0.28643498,-0.617507,0.06872934,-0.10297779,-0.69666207,-0.49497795,-0.023701672,-0.27761286,0.3853694,0.39283735,-0.70352286,-0.38188258,-0.38078654,0.20562911,-0.47564912,0.27733916,-0.006754151,-0.17660727,0.80917984,-0.14653994,-0.067480035,-0.8860572,-0.38762832,-0.8624469,0.17671956,-0.13527614,0.026403086,0.1536298,0.10596684,0.00012775767,0.26178288,1.0384163,-0.17423967,0.25629827,-0.038911354,-0.02634294,0.8399053,0.52807987,-0.20074202,-0.09748906,-0.40028328,-0.030297682,-0.52859074,-0.13651077,0.39658687,0.79248685,0.16917208,0.10196888,0.2058731,0.15702522,0.09542273,0.34680188,-0.35644418,-0.1804628,0.48966572,-0.44218236,-0.20935564,0.36006087
47,0.06565331,0.4796524,0.69301015,0.18238418,-0.20056587,0.11337027,0.35184655,-0.0032947266,0.15966125,0.4167861,0.6893662,0.27464294,-0.4115788,0.027830971,-0.3060505,0.33568212,-0.15771565,0.21402113,0.3719027,0.30996644,-0.0136896,0.058363583,-0.4513392,0.14102039,0.15316223,0.35686773,0.20802431,-0.071656995,0.4553332,0.037320636,0.15049407,0.15094781,0.31394047,0.44490692,0.06659085,0.09556568,-0.26615632,-0.07337744,0.05288019,-0.05701289,0.109285034,0.11878287,-0.24046941,-0.044672865,-0.28017163,-0.05425535,0.26305068,-0.26592827,-0.17807734,0.6028114,0.45991388,0.18066546,0.046195004,0.0066156792,0.4484068,-0.11156737,0.104091376,-0.8742933,-0.20353098,0.19438243,-0.13634822,0.06472539,-0.43283948,-0.3291957
48,0.09600667,-0.040583327,-0.3809898,-0.10607149,-0.2345883,-0.19187647,-0.028900085,0.05807187,-0.33610407,-0.007826452,0.035647515,0.01699253,-0.093297884,0.03776941,-0.14774764,-0.13704184,-0.13615812,0.18429261,-0.022604855,-0.1612669,0.023195779,-0.42409953,0.093253486,0.35778832,0.69533163,-0.42955628,0.33352485,0.12196425,0.22473344,0.12680386,0.11214177,-0.28710046,0.035196263,0.12691782,-0.16414586,-0.14914751,0.1945634,0.007446836,0.21493281,-0.27536812,0.48697388,0.26724553,-0.2709549,-0.03173019,-0.14652401,-0.02037846,0.22135884,-0.31294942,-0.053355187,0.028433422,0.15774713,-0.2858142,0.017340457,0.25170085,0.26012722,-0.022668589,-0.12730189,0.0654039,-0.21972646,0.29548422,0.28130028,-0.08773803,-0.17469677,0.051440384
49,0.25489604,-0.051278234,-0.19350734,0.2440537,0.009288267,-0.13993585,0.28679,0.058645155,0.0761549,-0.31275946,-0.0185719,0.07138514,-0.25244546,-0.66902,-0.21730551,0.010008419,0.15463917,0.2661642,-0.17633747,-0.10541252,0.18572399,0.5351204,-0.2647131,-0.4025066,-0.5413965,0.22699742,-0.038938332,0.21069121,0.3857495,-0.48114005,0.13353397,-0.16326676,0.024107724,0.6326324,0.087170444,-0.23491345,0.40932956,-0.19378254,0.14828794,-0.18578999,-0.14516497,-0.17686217,-0.07724319,0.33214256,-0.3260239,0.009211713,0.3630263,0.45293286,-0.007963048,0.08856298,0.10418874,-0.17931068,-0.2048722,0.04691901,0.23396751,-0.05883121,-0.18151073,-0.8121751,-0.06964283,-0.6199005,-0.13555416,0.104003586,-0.26871327,0.41154984
50,0.018580655,0.1949858,-0.28937393,0.0010608662,0.008996677,-0.12399756,0.053653922,0.041649107,-0.0021175663,0.008762226,-0.2168166,-0.2536001,0.060228564,-0.15612052,0.25606126,0.27821916,0.28593352,-0.33618957,-0.4397724,-0.13140623,0.07135656,-0.1464366,-0.10798578,-0.14904985,-0.39897767,-0.20670241,0.4433341,0.049695913,-0.3424795,-0.1615716,-0.10279244,0.122005925,-0.29233524,0.073920764,0.4463746,0.19986628,0.13385588,-0.08170546,-0.19748901,0.03159209,-0.17654054,-0.33042997,0.13497135,0.13243516,0.22019087,0.17639746,0.115129806,-0.24590378,-0.06391179,-0.19867286,-0.091547675,0.15023182,0.13567808,-0.41533053,-0.21311441,-0.42570475,0.35202855,-0.13090034,0.13029447,-0.31867394,-0.089159295,0.28811526,0.11562281,-0.13806723
51,0.05803773,-0.17054263,-0.38370442,0.8037262,-0.33974522,-0.15850295,0.09766984,-0.111056596,0.012142723,-0.30417424,-0.4339837,-0.010595289,-0.17427385,-0.19762358,-0.02925091,0.016407754,-0.42476133,-0.08918696,0.42558956,0.21389346,0.67808694,0.84654367,-0.21893564,-0.2511298,0.4766517,-0.13678946,-0.07406998,-0.14402412,-0.034423172,-0.3826168,0.38162166,0.25289416,-0.009209664,0.07234778,-0.053669058,-0.10031992,0.62621325,0.073305026,0.18644223,0.0120406505,-0.46160835,-0.041206528,0.35296607,0.25547656,-0.09652954,-0.52587956,-0.14568803,0.27082977,-0.2941249,0.015922084,0.5429228,-0.020126743,0.054721296,-0.1274933,0.4898365,0.30284014,0.4582748,-0.32633653,-0.5579725,-0.033532765,0.2747494,0.12741496,-0.16999514,0.19780254
52,-0.048586212,0.022412542,-0.21809234,0.121528566,-0.19687618,-0.47416288,0.24866246,0.21518835,0.13257036,-0.14889514,-0.23976916,-0.13987179,-0.06719171,-0.33448514,0.013702091,-0.12917751,-0.13865139,0.17674643,-0.35543102,0.1402033,-0.39850405,0.41699892,-0.14369684,0.2444971,-0.006529296,-0.08667802,-0.45620307,0.1400028,-0.081425406,-0.52604425,0.30169758,0.4542921,0.25646538,0.24044034,-0.09902943,-0.072255276,-0.051509757,0.2694335,0.0022385248,-0.10566734,0.06445556,-0.25970396,0.1583668,0.5494503,-0.6800765,0.14000703,0.18188338,0.061179735,-0.23752806,-0.2552366,-0.046161335,-0.1145695,-0.013135231,0.28692693,0.09160789,0.29213345,-0.030618368,0.6168322,-0.32021165,-0.19575673,-0.07139954,0.19211334,-0.15822054,-0.07473222
53,0.67620105,-0.24639386,-0.10180125,0.749273,-0.37199834,-0.4681171,-0.2552194,-0.6628546,0.24563944,0.091135986,0.015458025,-0.3481627,0.28993997,-0.49293503,-0.0009207707,0.47025093,-0.340263,0.010654213,0.15539625,0.13697347,-0.2180628,1.1814305,-0.1518433,0.20292455,0.5745925,-0.18908586,0.11964766,-0.38897613,-0.47991714,-0.6785562,0.27921504,0.06390935,0.15743116,0.58865345,-0.15549164,0.4583093,-0.18742728,0.13642068,0.33788586,0.25168115,-0.31805888,0.17811844,0.46016288,0.55067885,-0.4717068,0.22606291,-0.12298662,-0.19748025,-0.392279,-0.13315317,0.7874952,-0.5094849,0.38013837,0.14348944,0.709732,-0.16917196,0.3311048,-0.06366969,-0.5999498,0.070545554,0.56394196,-0.32205075,1.0699581,1.2198989
54,0.47185704,0.36382702,-0.019402804,0.2203983,0.0828978,-0.34419945,0.3160168,-0.09610767,0.12454705,0.38331872,-0.47379702,0.16329935,-0.20262398,-0.38983804,-0.09742055,0.36329833,-0.5680439,0.44251066,-0.104914844,0.19526921,-0.31575903,0.41460976,-0.18294954,0.56277645,-0.2656927,0.38936839,0.10708608,0.069965236,0.2517466,-0.36703217,0.26133952,0.050443366,0.07766986,0.7108426,0.28979453,-0.14968716,-0.011883448,0.03293648,0.066662855,0.18223259,0.059990536,0.10305011,-0.2811525,-0.27192095,-0.17152487,-0.10813071,0.1862757,-0.15675537,0.31831238,-0.06153282,0.28714618,-0.16077028,-0.2236344,0.08856546,-0.120136485,0.3764732,-0.35742125,0.018937219,-0.09993693,-0.16705932,0.29732448,0.013902048,0.08373878,-0.038488626
55,0.01905125,-0.7984977,-0.094295286,0.9533291,-0.4440303,-0.66038555,-0.032657042,-0.097760454,0.12391009,-0.51142156,0.31901094,-0.24910036,0.3877612,-0.30190623,-0.057069104,0.044432856,0.3359061,-0.08425095,-0.19771506,-0.25874045,-0.6927103,0.67089677,0.0812103,-0.15508868,0.70543486,0.38337648,0.3102514,0.18374494,0.0589711,-0.31116736,0.19799331,0.5473812,-0.018389061,-0.1294539,-0.26399925,0.12232074,-0.34773308,-0.4199963,-0.033845954,-0.49875748,-0.3140275,0.12839307,-0.20237947,0.705951,-0.46869835,-0.6290187,0.078077786,0.46199617,-0.88711977,-0.009562958,0.36120597,0.43540612,0.0383773,0.41049033,1.2896435,-0.21300434,1.3015233,-0.53547215,-0.47922754,-0.36997938,0.29278445,-0.11043589,-0.19573554,1.1116723
56,-0.2769082,-0.42632052,-0.06693251,-0.20199,-0.21585934,-0.47861445,0.05456202,-0.2299021,-0.055290207,-0.5580622,0.46170643,-0.41398484,-0.07201241,0.1274644,-0.22094934,-0.47640562,0.036878116,-0.15933652,-0.04392735,-0.3028036,-0.41298798,0.048049647,0.09134846,-0.2961733,0.54443204,-0.058960643,-0.12148923,-0.06174952,-0.2888049,-0.058718458,0.19646557,-0.32800436,-0.20104305,0.18156253,0.33262253,-0.16449249,0.17946577,0.23887953,-0.3084671,-0.21748625,0.008985571,-0.08756961,-0.020294629,-0.056521576,-0.24039106,0.18188646,0.026101476,-0.050656788,0.24333426,-0.53558207,0.48707038,-0.37234756,0.0117259035,0.21945605,0.19830634,0.20701303,-0.1636104,0.040465232,-0.024505025,-0.6727779,-0.09517423,-0.11229742,-0.18131435,-0.063587196
57,-0.14893907,-0.23802322,-0.76746666,-0.05926762,-0.21724434,-0.5290142,0.2646335,-0.5863145,-0.21187578,-0.044720635,-0.24716885,-0.016968567,-0.067032516,-0.018517774,-0.20063946,0.12651522,-0.19280761,0.15953077,-0.059288457,-0.07400948,-0.034492526,0.4920788,-0.23704152,0.013224695,-0.060185343,0.036424007,-0.13227814,0.34153807,-0.03191332,-0.5173533,0.24462116,-0.050002076,0.10445785,0.31991017,-0.044855937,-0.037190963,0.5610737,0.28351894,0.13616244,-0.05991388,0.21919234,-0.3646906,-0.36794496,0.43229964,-0.41073468,0.13560402,0.38735116,-0.048808474,0.46145296,-0.58663255,0.36943483,-0.377368,-0.044347193,0.22754288,-0.015787747,0.42261812,-0.34767258,-0.047344558,-0.40119624,-0.22009553,-0.0745473,0.2297238,-0.3389595,0.17844737
58,0.1668249,0.7396266,0.2881594,0.05237424,-0.045166496,0.13534388,-0.061636776,0.50827,-0.051406052,-0.18003522,0.024856705,0.13219993,0.06960885,0.2701901,0.014182302,0.31172034,0.02201589,0.21548688,0.11696555,0.14435092,0.038837828,-0.36143446,0.14147611,-0.06584116,0.022385743,0.26946044,0.38002473,-0.037280254,0.40404788,0.086573064,0.16783075,0.15835208,0.15814045,-0.2425263,-0.038014065,-0.15958032,0.073127575,-0.19895028,-0.017968612,0.08623066,-0.17224601,0.22672506,0.046517607,0.25721553,-0.36404622,0.5544465,-0.09258073,-0.37338907,0.1996093,0.46406814,0.088149376,0.011265155,0.21786836,0.13185695,-0.27123785,-0.18093921,0.1098027,0.14964136,0.12903115,-0.1331773,-0.05959066,-0.05809022,0.007284729,-0.19865578
59,-0.32370332,-0.0065948498,-0.31639186,0.28323737,-0.024892548,-0.16302633,0.23874246,-0.5730032,-0.059681863,-0.08621119,0.3412004,0.09275416,-0.3782815,-0.14811991,0.0542516,-0.638237,-0.07967893,0.012909008,0.013234858,0.11121385,0.4318534,0.22972302,0.31818646,-0.18113361,-0.052904136,-0.12490234,0.11700427,0.30451247,-0.21866788,0.19598393,0.019967603,0.18265605,-0.12312138,-0.920969,0.22013286,-0.27421615,-0.15149765,0.112463616,-0.49604544,-0.1487584,0.3548541,-0.31106132,-0.22652316,-0.6785636,-0.020364167,-0.25964653,0.30959937,-0.01645147,-0.046186425,-0.11535509,0.22062844,0.32683325,-0.34965497,0.16351856,0.07626334,0.0031731003,0.16905078,-0.0862764,-0.22051454,0.31592166,-0.22875623,0.20192452,-0.30211374,-0.12381061
60,0.1044518,-0.067005396,0.017420731,-0.25504625,-0.10111217,-0.05344662,0.045716092,-0.36904654,-0.20993404,-0.2131173,0.12817383,-0.11914692,-0.20542072,-0.24567446,-0.17688422,-0.28810513,-0.0498217,0.060542364,-0.18227123,-0.12624368,-0.22788522,0.19001594,-0.32715848,0.29062864,0.04384599,-0.25448436,-0.36054617,0.1028981,-0.15526854,-0.101302505,0.10667574,-0.13613133,0.062499274,-0.06815155,0.24001302,-0.055123173,-0.04766511,0.14865191,-0.19178836,-0.1732062,0.14255665,-0.16088998,-0.06602694,0.049783178,-0.17654835,0.2426398,0.323188,0.021438906,0.039201044,-0.6206953,-0.08205429,-0.12472514,0.18385154,0.2820189,-0.015314662,0.08548984,0.012823316,0.6828935,0.0036247466,-0.20811985,-0.15715508,0.26576748,-0.06619783,0.16606154
61,-0.63510215,-0.64708453,-0.023948882,0.6911189,0.41157907,-0.95577717,0.73479146,-0.31378657,-0.17701058,0.13357228,-0.3422193,0.019932164,-0.07700065,-0.3964336,0.47279322,0.2505617,-0.26087743,-0.14260103,-0.27472055,0.8791021,-0.24686113,0.4084767,0.17113551,-0.3571219,0.6281103,0.45244828,-0.00033623516,-0.37289283,-0.41091967,-0.8071609,0.45789906,-0.68538177,-0.2887098,-0.074475676,0.3847324,-0.032422725,0.2120793,0.51448077,-0.21097438,0.02317388,0.55607647,-0.20377064,0.42282602,0.3695487,0.04245773,-0.18533236,0.217661,0.3720068,-0.77021253,0.07226526,0.23613629,-0.15066238,-0.72209066,0.63403213,0.37597808,0.11519787,0.10354973,-0.11254463,-0.22990854,-0.04043724,0.3465433,-0.36478245,0.13754176,0.68343794
62,-0.4691384,0.9436371,-0.65059704,0.43443954,0.22750264,-0.3192856,0.9169337,0.19650328,-0.40323263,-0.5686846,-0.7861319,0.13443941,-0.44354755,-0.8312039,0.15576908,0.23445114,-0.14814863,0.3168743,0.2518937,-0.040612705,0.003436675,-0.30318135,-0.34099957,-0.64321744,-0.6388416,0.12038956,0.026105192,0.6886845,-0.72400755,-0.25168294,0.37262002,0.5587401,0.09584327,0.46221772,-0.22109808,-0.3104758,0.14203443,0.5089234,-0.056997743,0.22450769,0.15250449,-0.6206173,-0.20643778,0.6272171,0.6431054,-0.09920039,0.730576,-0.0038737382,-0.30003825,-0.6974873,0.2522238,-0.20265517,-0.8188721,0.5930947,0.17356692,0.8450522,0.37646252,0.40229043,-0.25315216,-0.14104015,-0.007554889,0.101553254,-0.09141157,0.27142814
63,0.21286583,0.045814678,0.084675774,0.10455423,0.33954787,-0.17275426,0.056052063,0.045210782,-0.12733148,-0.13690984,-0.2504792,-0.5651914,-0.32823724,-0.250061,0.15654391,-0.19341812,0.4148959,-0.06972785,0.5229244,-0.20362878,0.33921626,-0.22497594,-0.17789243,0.06574219,-0.13128075,-0.43368915,0.65746623,0.3228086,0.46653724,-0.25214535,0.16266231,0.24149358,-0.1731837,-0.2107124,0.32216722,0.087532364,0.49793625,0.41797742,-0.21118338,0.3283326,-0.06274834,-0.7343753,0.17321482,0.48320764,-0.2058666,0.61680984,0.24536912,-0.04417591,-0.16203922,-0.07125618,0.46317357,-0.19950898,-0.10521017,0.111449726,-0.0010735252,0.15031455,-0.1268199,0.29716623,-0.12491241,0.033241935,-0.0994272,0.15887617,0.047217157,0.3730174
64,0.06205371,0.09429505,-0.22051811,0.41805467,0.0026875439,-0.0707334,-0.04589659,-0.52373797,0.4203219,-0.30357385,-0.11737784,-0.23490204,0.20605807,0.015546384,0.6145789,0.19192801,-0.04038763,-0.040376496,-0.32057798,0.06818964,0.036251795,0.090500414,-0.15207326,-0.2945958,0.32763994,-0.08175313,-0.14211434,-0.24581379,-0.5135086,-0.029524833,0.11686258,0.14749002,0.20267145,-0.116998464,0.4220641,0.2702568,-0.0691205,-0.13621166,-0.007520433,0.28450206,-0.20876554,-0.112814516,0.3713772,0.36070067,-0.08950346,0.11481667,-0.10169109,0.023232462,-0.27225488,-0.50614923,-0.10584236,0.42382005,0.39700693,0.13885225,0.12544376,-0.15558076,0.4971193,0.3094587,-0.30650398,-0.08012565,0.05840366,-0.117599174,0.43860278,0.0558352
65,0.24022324,0.036673017,-0.04074158,-0.017480459,-0.026196076,-0.33705145,0.07692606,-0.13279018,-0.08415681,-0.12536146,-0.26139835,-0.024117608,0.1572728,-0.044372093,-0.006035401,0.20298114,-0.04792376,-0.0134314,-0.14356372,-0.11381614,0.02100778,0.21387848,-0.3041742,-0.21025528,0.031703033,-0.23331238,-0.13605726,0.11698952,-0.28487405,-0.3371993,0.18513773,-0.58913463,-0.100408666,-0.023545055,-0.18927717,-0.14437255,-0.022021772,0.053267725,0.057966217,0.17313337,0.23413208,0.44710323,0.13134687,-0.057788603,-0.19992232,-0.31530267,0.27965233,-0.019832397,0.01614557,-0.12284692,0.1916153,-0.035317115,-0.13519992,-0.043174874,0.1510777,-0.24641329,-0.071452014,-0.12793402,-0.16652161,-0.2852185,-0.15348718,-0.03121501,-0.13143814,0.07066742
66,0.13249932,-0.060385324,-0.15890789,0.3588597,0.59376967,0.032304764,0.10328508,0.16890526,0.18663606,0.2370946,0.08549902,-0.03671707,0.17988259,-0.035085347,0.023735944,-0.4522164,0.041844677,0.109390944,-0.42300043,0.12059697,0.02205129,0.20855908,-0.34513572,-0.09864555,0.56324875,0.27041668,-0.022297025,-0.09629741,0.20449993,-0.050755817,-0.09447632,-0.34994495,-0.07157699,-0.518238,0.23685928,0.1112725,0.3177595,1.0578812,0.03616366,0.018079316,-0.040982306,0.3981809,0.7698615,0.00015284168,-0.4272445,-0.32782713,-0.19698921,-0.31691983,-0.01570036,-0.48006815,0.0014995963,0.01474605,-0.100958206,-0.05007602,-0.08804116,0.060416956,0.036195107,0.2772298,-0.009537724,-0.19240488,0.28818884,0.11758403,-0.23116596,-0.31519338
67,-0.06964942,-0.001646676,-0.27356887,-0.15047011,0.17605771,0.13328761,-0.027722303,-0.123753,0.15541758,-0.015237334,0.054303892,-0.14484704,0.17514983,0.29101208,0.080044314,0.14790674,0.07754579,-0.03834952,-0.104877576,-0.059115786,-0.6862644,-0.068528175,0.26368493,-0.02091578,0.57055974,-0.39461097,-0.115649305,-0.12243462,-0.32800975,0.14623733,-0.07212106,-0.06711839,-0.18059364,-0.30627447,-0.1620862,0.3604453,-0.17985214,0.21865064,-0.10861784,0.34026244,-0.26547927,0.12030219,0.13285564,-0.4991139,-0.278877,-0.39429104,-0.32312423,0.11293176,0.27016583,-0.11950421,-0.06342846,0.03030021,0.16880895,-0.17868702,0.37530372,-0.2751081,-0.0007742639,-0.28220698,0.7037237,0.23926061,0.041459523,0.048764054,0.10288024,-0.089761965
68,-0.16389215,-0.5367338,0.0988403,0.43696466,0.21547773,-0.004943491,-0.10982083,-0.8542419,-0.0618438,0.022693828,0.27045825,-0.19728981,-0.15988803,-0.0063638627,0.34380668,-0.030971037,0.18303648,-0.32080653,-0.2503787,-0.039160304,-0.025872784,0.3190914,0.32214782,0.26559615,0.23005287,0.32454178,0.3306674,-0.8116827,0.54203176,-0.16058686,-0.114320815,-0.2662296,0.15170251,-0.15648964,0.09123487,-0.11450445,-0.10096483,0.30597383,0.059347503,-0.03141915,0.31725627,0.16818076,0.40899983,0.14780562,-0.17915052,-0.071141586,-0.26859438,-0.07786126,-0.26616785,0.36716023,0.12528777,0.09888867,0.313531,-0.2589717,0.106575675,-0.3537656,0.044418674,0.1336517,0.14193025,-0.043437544,0.26895672,0.039635643,0.4098376,0.4207262
69,0.30060655,-0.028077938,0.14142616,0.18345709,0.041843325,0.099591725,0.12764814,0.34381557,0.0037866505,-0.12568377,-0.053647988,-0.6031664,0.22533016,-0.11011423,0.13988176,0.3959419,-0.27088052,-0.27751258,-0.4915799,0.17899358,-0.07972872,-0.19997169,0.19431435,-0.27228212,-0.32559165,-0.45171884,0.10742291,0.041294817,-0.14581858,0.14786199,0.18310319,-0.11695765,-0.35821587,-0.26629722,0.3278901,0.30532894,-0.09574445,0.19437724,-0.0109277805,0.2860039,-0.33103824,-0.27618188,-0.488247,-0.017768547,0.58013785,-0.09451187,-0.1270769,0.08401189,-0.39713585,0.29608512,-0.21244681,0.14918244,0.18166111,0.07613808,-0.16865528,-0.21042389,-0.03696329,-0.25612664,0.116802014,-0.17667806,0.37957543,0.22420286,0.03985016,0.20911025
70,-0.11267359,-0.14073662,0.14770426,0.031042198,0.014064265,0.030568331,0.04312051,-0.13647646,-0.21395582,-0.16030586,-0.067635715,-0.10923722,0.106803015,-0.4027701,-0.11767249,0.18413526,0.40684658,0.15605727,0.17382705,-0.30204418,-0.15676884,0.15485653,0.013217187,0.07198707,0.07593955,0.32405022,-0.022378262,0.08854978,-0.09362785,-0.060724184,0.19550315,0.49376664,-0.1840249,0.06321053,-0.0070578717,-0.20287481,-0.024233025,-0.1750287,0.01792532,-0.06184742,-0.1077224,-0.14991568,-0.09506103,-0.12338356,0.16313778,-0.16700776,-0.011300088,-0.37970227,0.00970576,0.20524795,0.20104717,0.23145568,-0.05152096,-0.038013604,-0.07756281,-0.03357056,0.05244849,-0.000939063,0.13685057,-0.33085048,-0.09473978,-0.07946767,-0.041138947,0.27550924
71,-0.20209594,0.028644035,-0.26976576,-0.19687635,0.07862881,0.13656385,0.12148535,0.29947728,0.1565551,-0.031248135,-0.18482882,0.13196726,0.14254934,0.18743959,0.16262266,0.015979482,-0.20972793,-0.036777586,0.008407415,0.040480018,-0.14457177,0.015646493,-0.072116874,-0.27069506,0.19866015,-0.32112736,-0.3105175,0.0071666893,-0.07401243,0.034831166,-0.114834316,0.06522705,0.059201047,0.041140944,-0.4716081,0.109923854,0.30235195,0.123542964,-0.12684673,0.2211447,-0.0281139,0.22772613,0.19664049,-0.023274532,-0.23401017,-0.38083592,-0.07420571,-0.016562682,0.0018585969,0.13273276,0.23008786,0.15769616,-0.2291892,-0.07571524,0.078037985,0.18448684,0.40846393,0.06004606,0.265822,0.42007622,-0.010890235,-0.13632724,-0.049367126,-0.08714138
72,0.07930165,-0.08621376,0.20083709,0.29944113,-0.17999817,-0.5590675,-0.033298455,-0.089660965,-0.44290236,-0.36302713,-0.27533364,-0.060123153,0.086801216,-0.62482613,0.088032246,-0.017016828,-0.5411869,-0.050662532,-0.14375287,0.16940415,-0.21246788,0.27746442,0.04571699,0.07089593,-0.13771167,0.19178092,-0.25145173,0.12839575,0.020400083,-0.47053885,0.16839997,0.060554735,-0.17012434,0.010929014,-0.05716096,-0.20635207,0.040124148,0.081237525,0.045560684,-0.036747552,-0.12138079,0.24574769,0.06575332,0.11168823,0.08069492,-0.19950812,0.034577996,-0.04389203,-0.06728295,0.016199913,0.29850376,0.12252554,-0.01853539,-0.03293733,0.22022998,0.026254892,0.045504574,-0.053057298,-0.24393298,0.03190165,-0.04436648,0.16215189,-0.17716387,0.33142665
73,0.30985156,-0.15830915,-0.27078545,-0.1344351,0.19594637,-0.30215088,0.013431127,0.014637224,-0.021451686,-0.18089375,-0.061140284,-0.098953374,0.30849922,-0.23421358,0.10642229,0.2896835,-0.5250762,-0.0067867166,0.021051757,-0.27078074,-0.046584394,0.32249555,-0.32216397,-0.29819226,-0.24781737,-0.1121974,-0.010637134,0.099979684,0.17925538,-0.22033796,0.05208941,-0.00414021,-0.04266823,0.10821556,-0.4631446,0.026320405,0.09158085,0.23694031,-0.2464536,0.071802005,0.009931946,-0.32558048,0.048772406,-0.19417277,-0.29058468,-0.11922475,0.09633042,-0.24841698,-0.22375257,0.03655474,0.26304168,-0.33193612,-0.039284263,0.15639311,-0.12989435,-0.014540594,0.31076106,0.07695258,-0.12011981,-0.004715651,0.17103903,-0.07664551,-0.0030644613,0.5341541
74,-0.17699167,-0.14056379,0.06380604,0.33402053,0.32954258,0.035563875,-0.1944183,-0.07490013,0.155044,-0.051400233,-0.10910011,-0.3319642,0.3001096,-0.0031444286,0.15586324,0.20380838,0.21887268,-0.2969894,0.29433078,-0.011606923,-0.06274098,0.022356277,-0.10626174,-0.15820248,0.08082705,0.028152617,-0.11226209,-0.48628655,0.23404363,0.112977244,-0.031933166,-0.0023630415,-0.43472645,-0.0027525146,-0.024961472,-0.027136292,-0.32827422,0.23890525,-0.002953341,0.4329677,-0.27883348,-0.023380838,0.26678354,-0.12345822,-0.02381367,-0.13997157,-0.3785731,0.19085953,-0.04590463,0.076070584,0.018457903,0.16027655,0.3689943,-0.13715541,0.3000676,-0.07213188,0.29695803,0.106682554,-0.1735734,-0.0038530356,0.10932668,-0.068048075,0.3046518,-0.096465744
75,0.35784724,-0.50473857,-0.6441815,0.11408413,0.37123942,0.07255795,-0.34102052,0.26658598,0.3554599,0.028489789,-0.38484567,-0.054274738,0.21131487,-0.088881575,0.39714414,0.3346956,-0.4975165,-0.15920502,-0.50238603,-0.11835891,-0.41934422,0.27289388,0.03935458,0.47178206,0.577196,0.20667489,0.21569544,-0.9322172,-0.32442003,0.048261367,-0.0027054239,0.39754963,-0.364455,0.5198954,-0.19578311,0.20490852,-0.6076099,0.09782399,0.30837244,0.018252157,-0.36759934,-0.1000729,0.4208651,0.11389205,-0.49874312,-0.19519857,-0.517382,-0.18272154,-0.24443427,-0.306643,-0.18853128,0.2790425,0.12584324,-0.09418715,0.07495804,-0.2296673,0.43857834,0.41072887,-0.04957738,0.051711887,0.48224157,-0.36757874,0.3747377,0.3056534
76,0.08491832,-0.17353769,0.08213609,0.17807093,0.12958632,-0.36236545,0.11907538,0.028351737,0.048902802,0.12787189,-0.33721396,-0.0119166365,0.10802964,0.056049373,0.3573329,0.70501626,0.3157064,-0.30877888,-0.063319966,0.39373168,-0.003517766,0.38689876,-0.30451587,-0.23019278,0.31566828,-0.35000607,0.19842014,-0.11159815,0.25660673,-0.16968045,-0.013811382,0.03712877,-0.11103163,0.0043755905,-0.2004734,-0.3489988,-0.014843278,0.31477633,0.3671675,0.062135514,0.29673135,-0.0814519,0.102597386,-0.11638624,0.10843484,-0.20167793,-0.1201348,-0.1959021,0.22542235,-0.45703384,0.19602999,0.07462067,-0.058523197,-0.25694406,-0.08967028,0.02077167,0.24320324,0.84771705,-0.11245985,-0.115842186,0.12250728,-0.2255178,0.1761321,0.2723251
77,-0.3376798,0.016051732,-0.07251812,0.06945971,0.04285274,0.02020574,0.22368698,-0.05191018,0.266046,-0.2454678,-0.3036859,-0.048257094,0.11687901,0.07944022,0.14557119,0.25594136,-0.0351348,-0.41890618,-0.3767194,-0.009982153,-0.35440412,0.24546048,0.15933487,-0.44483703,-0.09746682,0.21537063,0.13094354,0.029954515,-0.40587866,0.07392494,-0.22594947,-0.2020904,0.24084565,-0.1410675,-0.06518588,0.20126018,-0.1911967,0.054189738,0.27471343,0.031821918,-0.34187776,-0.13969314,0.34552917,-0.3625446,0.12768278,-0.20761664,-0.099784315,0.27694666,-0.22314468,0.040792406,-0.017245032,-0.04094841,0.07057883,0.0004076449,0.21060246,-0.026922733,0.3458995,-0.09942413,-0.0011799196,0.26722237,0.2001456,-0.1446662,-0.15929124,0.19507346
78,-0.23486628,0.2646943,-0.1611841,0.24125211,0.05553757,0.0056999144,-0.017064897,0.20352295,-0.12429571,0.19221249,0.24999692,-0.06850328,0.03652232,0.08455121,0.27436712,0.029754154,0.06397921,0.18268862,0.066490225,-0.14841455,-0.037929885,0.013876407,-0.07778103,-0.037282415,0.48938966,0.024149561,-0.33827063,0.09235551,-0.015186387,0.0017020893,0.2302542,0.16338582,0.1456076,-0.024117365,0.020001438,0.070137076,0.1622532,-0.079894274,-0.15435278,0.12787852,-0.017792037,0.020267028,-0.010875356,-0.047169052,0.07013003,0.28192505,-0.11178434,0.20765893,0.114144355,0.11133459,-0.16604799,0.13091108,0.04139652,0.06737845,0.23555341,0.0036327955,-0.12836291,-0.173915,0.12961495,0.42034632,0.19499345,-0.014262855,0.040363673,-0.2631587
79,0.33456954,-0.19508141,-0.2725068,-0.5321091,0.38283557,-0.25525904,0.19165231,-0.14332947,-0.1442676,0.25984377,-0.32364252,0.050071888,0.0051493086,0.08687382,-0.16424267,-0.16779682,-0.11388725,0.006290682,-0.072614364,0.28876406,-0.0034745112,0.21694005,-0.0052584,0.033577,0.26658365,-0.21082856,-0.33071396,-0.23774174,-0.15120773,-0.27519357,-0.007096074,-0.22761089,-0.17128804,-0.071032025,0.2052035,-0.055127386,0.31222704,-0.04656925,0.044863682,-0.121788055,-0.021391815,0.5766519,-0.2197571,-0.5551477,-0.06225455,-0.11836062,-0.11936849,-0.12211063,0.5179543,-0.19276623,-0.22669579,0.077409275,-0.16024199,0.12676077,-0.20654382,0.06252603,0.26851198,0.404192,0.64920646,0.3544723,-0.25087243,-0.16803621,-0.48133224,-0.10567667
80,0.056375433,0.045769986,0.4405398,-0.0049817436,0.008149868,-0.1611251,-0.041937977,0.043381386,0.02416278,0.08630246,-0.18038797,-0.086839385,0.34621173,-0.030033236,-0.093647234,-0.077895634,0.244386,-0.22387703,0.33471417,0.5018087,-0.44088927,0.09670178,-0.20520902,0.20567502,-0.167911,0.27600068,-0.14123502,-0.045604046,-0.15547085,-0.07621996,0.22659667,-0.020625502,-0.41381815,-0.31457317,-0.1603504,-0.06065718,0.1551566,0.09645902,-0.024595838,0.2571564,-0.13993505,-0.27779287,0.30988166,-0.24780102,-0.044760425,-0.15242155,-0.07583681,0.30857775,-0.17181674,0.37129304,0.009656489,0.056156803,-0.13534851,0.11325052,0.32645768,-0.03947239,0.080119126,-0.37623352,-0.20226155,0.5811443,-0.13639459,0.1556945,-0.07236383,0.3017211
81,-0.15898994,-0.21206951,0.20676532,0.11325394,-0.088647686,-0.07706094,0.176639,-0.07425175,-0.13444956,0.014715666,-0.09545905,-0.14065759,-0.14497462,0.030539634,-0.07038881,0.0054790215,-0.213106,0.14504807,0.021845931,-0.21473256,-0.12321739,0.20485672,-0.10024472,-0.12795925,0.069752194,-0.21167514,0.07255808,0.1701226,-0.5004515,0.24955177,0.19002463,-0.39279112,0.17599425,-0.32335287,-0.02951208,-0.1683897,0.23334114,-0.04366276,-0.22774588,-0.058673605,0.060896292,-0.002540071,0.042133793,-0.024074141,0.26149493,-0.25645438,-0.015671425,0.1367506,-0.00095301936,-0.09756481,-0.1560066,0.01141656,-0.2395441,0.017974455,0.0034765,0.046952818,-0.14478703,-0.0007775584,-0.06808414,-0.021949735,-0.049623445,-0.102709845,-0.018414034,0.2725429
82,-0.2086119,-0.3321837,0.2371567,0.19949295,-0.03408679,0.021127522,-0.12497193,-0.36970925,0.0367276,0.076786496,-0.19496673,-0.3140173,0.14217621,0.103695504,0.16313772,-0.13685569,-0.050165787,0.016571606,-0.13788354,-0.04112474,-0.25972223,-0.057368033,-0.057448626,-0.22455724,-0.0581074,0.06563308,0.06665335,-0.013229238,-0.23032479,-0.07485237,0.045553677,-0.29774866,-0.19674948,-0.35625812,0.31445298,0.14206721,-0.105989434,0.10826138,-0.13605668,0.011461091,0.021226952,0.16122223,0.050370585,-0.13181132,-0.16382015,0.33699605,-0.16977237,0.2977926,0.20452325,-0.20838879,0.14370844,-0.05457716,0.02962003,-0.106622614,0.28855148,-0.35734206,-0.13561864,-0.04701929,0.42787644,-0.0023022532,0.18575719,-0.058329687,-0.01766994,0.0018787738
83,-0.09936037,-0.34654912,0.29290742,-0.3579998,-0.044464976,0.049777295,-0.18728374,-0.19077519,-0.16200654,-0.3531243,0.07989389,0.20851266,0.33130842,0.30857685,0.002141284,0.0934901,-0.16346589,-0.0811697,-0.057547648,-0.115636155,-0.4386765,0.30038142,-0.14143015,0.023796562,0.4144399,-0.47410044,-0.09948451,-0.0071550366,-0.36856145,0.05988091,0.06546116,-0.13246591,-0.04503122,-0.50526315,-0.18063913,0.05680749,-0.46406287,-0.26515538,-0.2972935,-0.28956416,0.06442966,-0.12161677,0.003464384,-0.07701446,-0.12315636,-0.06403184,0.54877144,0.16743097,0.3494686,0.091103636,-0.059527133,-0.33411196,0.08604691,-0.120727666,0.013984185,0.2506981,0.012869539,0.2062175,0.22766638,-0.060094703,0.085301034,-0.022362404,-0.057173755,0.2337057
84,-0.02359387,-0.3271133,-0.049070507,-0.03598248,-0.17973822,0.039404683,0.23739393,0.00035135777,-0.1170681,-0.49605554,0.17064981,-0.04039348,0.04652704,0.11408221,0.051370513,0.12605797,-0.37709844,-0.04687006,0.047506467,0.078128785,-0.0363451,0.12692377,0.20295902,-0.07146585,0.31764165,0.017756753,0.11656183,-0.13915107,-0.15788645,-0.22765486,0.18989067,0.22631313,0.07388863,0.20673013,-0.015708754,-0.061493006,-0.37623286,-0.020186149,0.383487,-0.08708163,-0.128113,-0.17635475,-0.22978799,-0.2980583,-0.09052452,-0.11579799,-0.19208197,0.16537437,-0.119780995,-0.32397598,0.1914208,0.038342636,-0.051037244,-0.07588398,0.013795856,-0.12837839,0.01006564,0.18809044,0.052417804,-0.09061088,0.011167969,0.03687282,0.086506605,0.3135694
85,0.20867714,-0.27458382,0.020459047,-0.090251505,-0.19769642,0.03458557,0.044607565,-0.2190199,0.038707186,0.03839232,-0.20496379,0.16150995,0.14971243,0.10528027,-0.13257168,0.08911931,0.090508536,-0.02999939,0.34735543,0.24703172,-0.09183288,-0.13674535,0.2068041,0.09065633,0.24622802,-0.40633923,-0.12565522,0.12583672,-0.067661054,0.38719478,0.045607094,0.09621161,0.06409623,0.31203634,-0.3486789,0.1808083,-0.34283212,0.28254104,-0.16678976,0.335954,0.003932567,-0.24670191,-0.104469895,-0.27462915,0.255558,-0.21575798,-0.0348768,-0.16532445,0.068679474,0.5567375,0.08586452,0.049107786,0.084203385,-0.098301075,-0.1768908,-0.07167334,-0.25898084,-0.016391976,0.032264058,0.06843743,0.13952857,0.21941625,-0.11830038,-0.34559944
86,-0.065980874,-0.35490063,0.34282926,0.35511306,0.0011528458,-0.070371106,-0.08441209,-0.35468018,-0.30857703,-0.052818604,-0.31542906,0.11998258,0.1607282,0.33381262,-0.46274373,-0.105194174,0.39873844,-0.16606818,0.7538076,0.036366675,0.39110348,0.15176567,0.22204131,0.25292006,0.11964487,-0.27471825,-0.100976534,0.057719644,0.5906581,0.014126321,0.313546,-0.6822559,0.23080112,-0.26294044,0.24798162,0.11223571,0.3220425,0.6425591,-0.3438683,0.20820056,0.07911379,0.16377223,0.10270624,-0.01699411,-0.095331006,0.4348729,0.10828346,0.21071494,0.24176988,0.35351157,0.10350156,0.40069628,-0.5073354,0.12471108,0.10346247,-0.49113017,0.24554409,0.011877771,-0.041428704,0.05105127,-0.20354559,-0.042194154,0.8056494,0.37212333
87,-0.12808804,0.022939991,-0.21736935,0.10669468,0.21033397,-0.34963578,0.084877014,-0.060259208,0.3017702,-0.22675434,-0.17749326,-0.27766287,0.15726522,-0.64304346,0.5749745,0.4021035,-0.44747785,-0.1660441,-0.5470355,-0.13063163,0.032934863,0.15742864,0.37992683,-0.5530952,0.2931066,0.09042723,0.3544587,-0.09123328,-0.34026113,-0.23373558,-0.21314274,-0.15415898,-0.2661501,0.33916652,0.025916314,0.2303021,0.43157107,-0.16663513,0.014645187,0.31039736,-0.32576853,0.09052081,0.50671506,0.071536504,0.11630621,0.03346862,-0.24151789,-0.07870793,-0.07001206,-0.5001013,0.20456082,0.16720086,0.20330413,-0.030192941,-0.05259812,-0.048770573,0.32620493,0.5083012,0.3735192,-0.13841511,0.01008189,-0.03646047,0.060480982,0.52407354
88,0.12784833,-0.19711566,0.17352799,-0.18738498,-0.11002025,-0.10288754,0.1149087,-0.028277433,0.044326026,0.5946549,-0.15742329,-0.03291894,-0.16703181,-0.042477503,-0.16550973,-0.04562666,-0.16453084,0.069437526,-0.19905233,-0.080078684,0.25568795,0.15473449,-0.070032455,-0.3422779,0.16445243,0.013134571,-0.07932006,-0.011371821,0.007267382,-0.045948204,-0.052102175,-0.010696072,0.014417141,-0.014447583,0.105666995,-0.020274172,-0.034499977,-0.0027344145,0.30842182,0.07029002,-0.33403265,-0.10097067,0.16766307,-0.30523664,-0.32212836,0.087698236,0.009527603,0.6112402,0.5493038,-0.2652234,0.2548806,0.1271248,0.090866216,0.103952885,-0.074880995,-0.03442525,-0.22032337,0.024486583,0.34297702,0.22040126,0.04266638,0.066850916,-0.24259965,-0.25608447
89,-0.31002602,-0.058268286,-0.06371827,-0.22272499,-0.19162849,0.06438924,0.12725551,-0.006348119,-0.24176525,0.10107073,0.0868232,0.17066424,-0.06873563,-0.10463527,-0.22716622,-0.017460821,0.15655608,0.02701749,-0.027046924,-0.17582875,-0.21363945,-0.040623184,0.48617297,0.45303527,-0.21952981,-0.059099704,0.51605564,0.27563477,-0.2508528,-0.080908045,-0.11395098,-0.07271496,-0.033189423,-0.1457307,0.38481268,0.1391232,-0.008988898,-0.065048166,-0.514763,-0.037625745,0.26952597,0.24416341,-0.13313083,0.15615234,0.015847417,-0.19810478,0.017822592,0.20237114,0.22671558,0.26793668,-0.064199924,0.16534321,-0.18937609,0.23959841,-0.12625064,0.14388035,0.20832497,0.05081507,-0.27851927,0.1090345,-0.24243812,0.112633094,0.22694103,0.24187964
90,0.019045642,-0.055051994,0.23484655,-0.27099302,-0.2544562,-0.3006054,0.119934574,0.048415832,0.081664406,-0.21322481,0.049702417,-0.0018132303,-0.11326531,-0.6057541,-0.10696204,-0.06689562,0.034322437,-0.052737772,0.13249832,-0.22021487,-0.033950314,0.16518109,-0.5570656,0.24087775,0.07397747,0.24280797,0.099952444,-0.20494837,0.114905,-0.24877046,0.23741554,-0.011101223,-0.038913786,0.2228319,-0.05003302,0.07577995,-0.032986447,-0.16225713,-0.24292713,0.14318474,-0.3340729,0.13496818,0.28634718,0.008795347,-0.047041744,-0.08132306,-0.19913399,0.11594829,0.19713481,-0.09805091,0.45215425,0.61387736,0.0022870773,0.036563255,0.14122239,0.18000667,0.27394098,-0.093781374,-0.029958874,0.19391918,0.0019332954,-0.08884072,-0.26177076,-0.20884818
91,-0.05579591,0.09410159,-0.16356142,-0.12687334,-0.029002467,-0.21915601,0.24730885,-0.43669963,-0.0063761063,0.13791327,-0.29662108,-0.0022621644,0.035759605,-0.14005925,0.06489444,0.15261646,0.02129547,-0.017988669,-0.021362491,0.11117253,0.1974623,0.39267316,0.10238748,-0.00054675696,0.55587155,0.0077308067,-0.18531184,-0.11536555,-0.28870097,-0.4093594,-0.051466454,0.0095319105,0.095437944,-0.06432261,-0.0067993766,-0.12305952,0.4602936,0.0059791966,-0.07654429,-0.0678457,0.08807718,0.26579684,0.26245433,-0.7428262,-0.13990504,0.037547376,-0.21600746,0.12000991,-0.107742675,-0.3943394,-0.033658266,-0.0027746856,0.07164043,0.0578593,0.03154648,0.22589517,0.0004027589,0.17034434,0.08564421,0.28336138,0.07845804,-0.09585942,-0.20062524,0.3529816
92,0.06121294,-0.3783874,0.07278452,0.3461384,-0.028927201,-0.20101947,0.33227032,0.18874133,-0.030204983,0.027693313,-0.19230811,0.40240225,0.05154476,0.25892204,-0.4877851,0.14554001,0.37119094,0.12602583,0.014603573,-0.062329233,-0.3241963,0.43645808,-0.16665564,-0.07567408,0.6444807,0.12053537,-0.11659972,-0.30706865,-0.059763294,-0.15284707,0.03322778,-0.118272066,0.32382658,0.074061446,0.17722061,0.2912114,-0.11309887,0.047297403,-0.17121038,0.18310007,-0.22335039,-0.043840244,-0.35722637,0.13809168,0.1481034,0.44504532,0.26355106,-0.2657854,0.56109023,-0.3879019,-0.14190087,0.14058235,0.1071539,-0.040960897,-0.06667094,-0.2731839,0.4171005,0.21813543,0.28259808,0.27967215,0.15533814,0.05730485,0.26376355,-0.18930218
93,0.08407189,0.094374165,-0.097423,-0.14938462,-0.19184603,0.010424721,-0.25524756,-0.15989155,0.03390925,-0.35276902,-0.108280286,-0.082208276,0.11252701,0.11177967,0.053112227,0.097929105,0.13940367,0.24680653,-0.03575368,-0.24788032,0.20510487,-0.077314675,0.13457407,-0.019338934,-0.45586225,-0.12741089,0.18036504,0.075810514,0.06177145,0.22444336,0.21937443,-0.1994665,-0.08784372,0.05549407,0.25143933,-0.022074614,0.41511688,-0.26054767,0.21950424,-0.00043288455,0.20173952,0.013706632,0.059718646,0.21093763,0.80092573,-0.15060167,0.38579693,-0.64466107,-0.06473122,0.3358048,-0.14381328,-0.20604335,0.23206724,0.09809219,0.19686076,-0.290753,-0.05215575,0.02233491,-0.22179568,-0.3590302,0.07651998,0.08875976,-0.16119902,-0.3331231
94,-0.32670686,0.062422473,-0.09046768,-0.28235957,0.18772206,-0.012116407,-0.4380491,-0.37048697,0.3081652,0.17387073,0.04305805,0.23353529,0.07406385,0.1913016,0.24101202,-0.018394215,-0.027837515,-0.30593246,-0.120231755,-0.22569807,-0.03031003,-0.041766465,-0.07062407,0.09039772,-0.27419657,0.37306103,0.17012325,-0.10037937,0.032276906,0.0121451765,-0.39848557,-0.008525604,0.12667897,-0.3271632,-0.21972145,0.23045067,0.14851522,0.20022337,-0.08199352,0.011399463,-0.17176734,-0.013839826,0.11999477,0.13459589,-0.021895628,-0.16954994,-0.19882108,0.008506478,0.16233759,-0.13806972,0.073884845,0.19973624,0.2265788,-0.25492233,-0.053709023,0.08359274,-0.031049922,0.28248963,-0.29973924,0.77124256,0.17421077,-0.3421171,0.27410597,0.17153129
95,-0.3320713,-0.3490583,0.02687335,0.29447338,0.045998335,0.119200855,-0.1071775,-0.2915347,-0.10207845,-0.7890102,-0.21807815,-0.035481296,-0.29704347,0.15585168,0.15300332,-0.38614932,0.05002697,-0.18743075,0.05729216,-0.14564285,0.1991275,-0.18056636,0.7588057,-0.21378064,0.19968341,-0.091819786,-0.004718929,0.22684771,0.19034877,0.23654355,-0.17164993,0.20055525,-0.28642946,0.1440194,0.20469597,0.21035706,-0.2762021,0.07190928,0.26582778,0.18496524,-0.045424398,-0.7177311,0.20331688,0.057479456,0.30127856,-0.31026456,-0.11794101,0.5430823,-0.16515157,0.40853125,-0.011512943,0.15889987,0.03384818,-0.25736728,0.10832989,-0.11702348,0.10623853,-0.007689349,-0.081120804,-0.51000035,-0.115166955,0.07366304,-0.14837515,-0.1471992
96,-0.20055006,0.03260427,0.56261665,0.30742553,-0.30474037,-0.34116846,0.0762376,-0.31392315,0.04862119,0.25949058,-0.055076774,-0.07110379,0.23546347,-0.15248738,0.1096507,0.0045999046,-0.056047842,-0.10135706,0.21509317,0.19277513,0.39398158,0.47673303,0.18278821,-0.16943164,0.25484082,-0.1133535,0.0425061,0.09768094,-0.1748305,-0.24409537,0.09179292,0.0564806,-0.009882788,0.31967527,-0.06740073,-0.028647732,0.1316976,0.24295692,-0.09685247,0.2901821,-0.068719424,0.17938478,0.25811398,-0.27940908,-0.29056203,0.0075192144,0.18385223,-0.12427451,0.081165716,-0.37052682,0.14700273,0.2504787,0.018183997,0.08321271,0.21552585,-0.049503155,-0.19325574,0.3901504,-0.61407065,-0.12397377,-0.058222916,-0.15563846,-0.14018446,0.33129957
97,-0.100026876,-0.085163064,0.43436837,0.06408252,0.06854748,0.10735675,0.17079772,0.1551515,-0.1441709,0.13498978,0.40285814,-0.05438791,-0.028266659,0.16347736,-0.15135528,-0.101230145,0.35371578,-0.009168813,0.3138382,-0.42369497,0.27147266,-0.3702433,-0.026705086,0.20049112,-0.2555347,0.057291213,0.08213311,0.0859604,0.22755161,0.2001699,0.15262558,0.8476696,0.092135206,0.05661385,0.08716994,-0.18960276,0.033609994,-0.05051885,-0.053590216,0.021332625,0.020663464,-0.23194797,0.0008794158,0.22894752,-0.12279017,-0.28780016,-0.068818584,0.2992971,0.3129127,0.33288422,-0.07627028,-0.07115262,0.028797207,0.053072326,0.1816671,0.021464922,-0.024237035,-0.07774579,0.0017646844,0.09012567,-0.19806467,0.08335741,-0.112588495,0.116489194
98,-0.11478323,0.004779884,0.15942316,0.03209005,0.03171989,0.22474417,0.13428965,0.3905855,0.2659707,-0.21590932,-0.35328573,-0.025008367,-0.013783386,-0.025782425,0.36870268,0.007598318,-0.33526754,-0.1176191,0.08097385,0.43073496,-0.6018269,-0.14220434,-0.015909638,-0.09979185,0.077964276,-0.39041644,-0.032252137,-0.06673759,-0.30782843,-0.10342471,0.12658533,-0.23778977,-0.12072041,-0.2704298,0.09161797,0.34460527,-0.12406088,0.1298895,-0.33273557,0.23996015,-0.18544362,0.14028974,0.04437704,0.04037985,-0.1125271,0.40589914,-0.05984353,-0.06290906,-0.20707376,-0.13537182,-0.18313958,-0.07434817,-0.04230659,-0.28571284,-0.41559628,-0.0043025045,-0.29199305,-0.20869306,0.31677645,0.0023529537,0.09004071,-0.072531156,-0.15177934,0.0969068
99,0.22793457,-0.42383373,0.064532675,-0.014785153,0.054337785,-0.03067367,-0.016797846,-0.01701791,0.19164412,-0.29357517,0.006481178,-0.22364104,0.20376116,0.1529919,0.04567916,0.321842,0.008142877,-0.022839073,-0.109930485,0.1666283,-0.14957991,-0.21577372,-0.07604022,-0.21422958,0.4209345,-0.3689904,-0.0030355428,-0.29111305,-0.36828282,-0.12540159,0.03517172,0.08995791,-0.40561238,-0.08459975,0.16041258,-0.2472433,-0.42673156,0.1429456,-0.017647052,0.2452836,-0.13039352,0.0074400897,0.101082735,-0.20863213,0.5690243,-0.10533781,-0.14494361,0.3110196,-0.06299313,-0.06408921,-0.014513803,0.08015862,0.0076701725,0.030998075,0.18400684,-0.16757008,-0.040481765,0.13819656,0.7882463,0.086546116,0.11676872,0.0842191,-0.086755455,-0.2038967
100,-0.15111639,-0.1978506,0.10936261,-0.2726536,0.08672384,0.18736905,-0.30891103,-0.31793657,-0.080013566,-0.015859285,0.3656274,-0.04307307,0.29818952,-0.11340205,0.09172343,-0.01983747,-0.05860329,-0.047130916,-0.32645673,0.018012227,0.009967063,-0.079430185,0.11679938,-0.19707008,-0.12922844,-0.7306822,-0.11581104,0.0098178545,-0.5586634,-0.0017968866,-0.00051462266,0.3517091,-0.12349135,-0.13729705,-0.006654299,-0.06439695,0.18763122,-0.15789573,-0.09412807,-0.04683297,0.2660506,-0.0889206,-0.24600734,-0.1452727,0.359932,0.11824965,-0.03528966,0.12203983,0.13793007,-1.0086838,-0.43146974,-0.010470302,0.100326575,0.102817625,-0.1813608,0.26629055,0.3993544,0.43031263,0.12358474,-0.20722729,-0.13204542,-0.058456283,-0.2613319,-0.45139128
101,-0.28637323,0.021168916,-0.17370875,0.41575858,0.09040874,-0.31674525,-0.098747715,-0.04143578,0.11052508,-0.020821,-0.6088113,-0.19152005,0.08208001,0.2743869,0.37740827,0.44285125,-0.3134643,-0.07251198,-0.3984087,-0.068510264,-0.62516755,0.15862468,0.24857645,0.018907623,0.24249771,0.098064706,0.035740197,-0.16957831,0.007863344,-0.48657686,0.04605064,-0.2300644,-0.31303602,0.14260572,-0.25315312,0.18438596,-0.2988137,0.23068625,-0.17549184,0.18883449,-0.073894165,0.13613102,0.55525964,-0.1529277,-0.37383503,0.1508348,-0.39180872,-0.06496742,-0.29724988,-0.4208854,-0.0113213435,0.26740766,0.25805354,0.04632043,0.18483637,0.038168494,0.3297598,0.4182801,0.37417614,-0.34386438,0.30707803,-0.2683896,0.07888709,0.08252308
102,-0.42123872,-0.09342667,0.06172559,0.42765373,0.12172039,0.16775222,-0.053363077,0.20699032,-0.11251552,-0.1623256,-0.17950891,0.06806925,-0.299395,-0.069977686,0.24388684,-0.19316377,-0.29981372,-0.2588478,0.16750704,-0.10233247,-0.24774925,-0.08838646,0.016771551,0.07207796,-0.26406127,0.07693748,0.007013108,0.13724425,0.37490445,0.09602334,0.045720845,0.28419518,0.27365923,-0.3376407,0.10418867,-0.09100508,0.24379736,0.2948274,-0.08692294,0.045630645,-0.06560863,-0.29175094,-0.00015235526,0.1167727,0.6486063,-0.27371153,-0.111882195,-0.3554355,-0.047846586,-0.2538148,-0.056327436,0.20750308,0.09880878,-0.17166002,-0.062035885,0.097429,-0.11116203,0.17935605,-0.32686538,-0.164328,-0.027438272,0.14128155,0.35477662,0.13529581
103,0.3173755,-0.1814528,0.13895641,0.18010256,-0.17341714,-0.3944269,-0.01769326,-0.5174016,-0.18847401,-0.61552274,-0.078457415,-0.13820222,0.06527813,-0.28867355,0.6547066,0.30359334,-0.03471665,0.07525394,0.043875907,-0.01830886,-0.12241817,0.003684829,0.19407885,-0.02417338,0.2003291,-0.27260846,0.21225056,0.10220045,-0.020528369,-0.22391307,0.3238635,0.0992228,-0.7597792,0.24122544,0.26249442,-0.10883362,-0.17704146,0.30748457,0.027058048,0.040858794,0.24468291,0.2674237,0.055433646,0.12432309,-0.10684193,-0.34896746,-0.22212286,-0.6137677,-0.30901346,-0.29817244,0.3407033,0.28141865,0.037062187,-0.023616662,-0.09466684,-0.36134228,-0.43210846,0.4337393,-0.10424691,0.14758974,-0.038895186,0.11923939,0.1128882,0.17690657
104,0.39284596,0.03561043,0.17051223,0.05501869,-0.20446241,-0.16551118,0.02582595,0.07850657,0.092999786,-0.19087365,0.043623395,0.072367795,0.042263098,-0.3334104,-0.030269409,0.031249259,-0.52080846,-0.18417703,-0.1941144,-0.09836403,-0.3243938,0.13880187,0.029259527,-0.1524285,0.13800342,0.036347136,-0.066715755,-0.3016038,-0.01394971,0.08861953,0.04107287,0.4210403,-0.064985834,0.2844735,-0.022950279,-0.015950494,-0.088504076,0.008390334,-0.09597537,-0.10615177,0.09434826,0.03905204,0.23578753,-0.330443,0.03299765,-0.22580485,-0.2609594,-0.06347844,0.07862673,0.013135324,0.14715964,0.11179303,0.16236754,0.12852013,0.29590708,0.029828934,0.23023511,0.117427416,0.06009055,-0.36998507,0.029138995,-0.18475574,0.020106802,0.4571977
105,-0.26322937,0.2055442,0.09969957,0.118152745,0.04990709,-0.009575536,0.12224776,0.30848944,-0.28103122,-0.2544748,-0.28828248,0.11173847,-0.09412144,-0.1144494,0.31876314,-0.044996746,0.21501938,-0.098369665,-0.32247335,0.28797486,0.07403529,-0.32332048,0.3760601,0.22917014,-0.027128505,0.205422,0.0775512,0.095549986,-0.07073315,-0.12559083,0.08142089,0.05611088,0.19814156,-0.22742654,-0.11826279,-0.17331834,0.093081445,-0.2435986,0.007776084,0.21311294,-0.26471105,0.35883924,-0.11628278,-0.069096774,-0.101193056,-0.06712175,0.10489903,0.0018697799,-0.061922204,0.023060685,-0.06044512,0.16703095,-0.19928157,0.2773463,-0.074137665,-0.34536737,-0.38493383,0.1696383,0.14190345,0.0073118797,0.27069837,0.5395489,-0.05468245,0.18390436
106,-0.19717827,0.39926776,0.019720808,0.15704381,-0.1471785,-0.2112361,-0.11018271,0.19254838,0.028807765,0.30884895,-0.52766037,0.1688923,0.22933017,-0.15713032,-0.00076372945,0.0056938394,-0.46503356,0.046903204,-0.0372396,-0.003422007,-0.09922145,0.30867708,-0.16523167,0.15364715,0.26036376,0.28560403,-0.45107508,-0.056392264,-0.102804564,-0.17965019,0.09088847,0.42905042,0.09218045,0.25308216,-0.24292114,0.04027223,0.036916725,0.24645153,-0.188791,0.30264276,-0.07725922,0.27364588,-0.01867684,0.21532866,-0.4020968,-0.0077117835,-0.07534481,0.3000225,-0.017637024,-0.34273803,-0.026336549,0.07538013,0.12971081,-0.026556527,-0.2785857,0.2096171,0.060598534,0.34737515,0.044638593,0.13519464,0.113485925,0.044257976,0.092997886,-0.4173791
107,0.12950921,-0.5952418,0.038154412,-0.55590963,0.4178512,0.117635876,-0.107343055,0.24150735,-0.1809835,0.08650703,0.13889723,0.047240924,0.89771354,-0.092609085,-0.05236672,0.6940509,-0.15171477,-0.089364454,0.14650114,-0.05567425,-0.8056295,-0.28742203,-0.47984517,-0.062970676,1.0068827,0.26659295,0.08043668,-0.6266683,0.08213042,-0.052495167,-0.26085135,0.0006513135,-0.8975096,-0.00018186845,-0.19258092,0.49493688,0.08671472,0.4513677,-0.36026433,0.0014015335,-0.29249406,0.25570998,-0.037812445,-0.050256204,-0.13610694,0.04420605,-0.27202964,-0.30061072,-0.076775886,-0.13708086,0.102924034,-0.88751423,0.24754903,-0.227474,-0.0726387,-0.21323863,0.34251603,0.07814179,0.11092162,-0.0854727,0.30026895,0.0686,0.3082653,-0.09634802
108,-0.3875857,0.28384086,0.22734216,0.46157533,0.30168593,-0.070843376,-0.10652993,-0.3468601,-0.05993606,-0.20537183,-0.014225242,-0.20684788,-0.2626649,0.39132947,0.07976712,0.09125873,0.36687672,-0.14104213,-0.03791856,-0.27251142,0.1470488,-0.4572232,0.25374296,-0.045347173,-0.7799581,-0.27673772,-0.14253487,0.13619725,-0.1369226,0.078553356,0.07106647,-0.1820296,-0.13503274,-0.2197835,0.25589377,0.08151808,0.062408306,0.41518745,-0.35610843,0.16674365,-0.007348536,-0.11786038,-0.3470324,-0.22647342,-0.017916255,-0.013434152,0.2841954,0.41484165,0.16484849,-0.2416441,0.12859644,0.17860788,-0.18561383,-0.06791557,0.10880366,0.23429409,-0.326429,-0.30250865,0.19748597,0.08432212,-0.071705885,-0.23724827,-0.1437653,0.089584775
109,0.30142877,0.012747766,0.09221553,0.03151074,-0.050900996,0.21305268,0.49172673,-0.2568506,-0.28200462,0.25548393,0.07580177,-0.20431687,-0.23837347,-0.14349034,0.17929897,0.3797898,-0.03491885,-0.06493902,-0.048145697,-0.28284177,-0.2494996,0.30491817,0.33052182,-0.009782135,-0.027228422,-0.31302398,-0.06817646,0.017352268,0.03088245,-0.083833754,0.17264235,-0.26152745,0.17403291,0.263154,0.03745856,-0.023339871,-0.3437525,0.044533156,-0.037752558,-0.06300399,0.025501085,-0.045947816,-0.11221923,-0.06942996,-0.14203703,0.67431176,0.22214364,0.19491021,-0.013934722,-0.12090436,-0.18894134,-0.066064894,-0.10543417,0.11442155,-0.116337866,0.47386327,-0.15053162,0.03017689,-0.21501544,-0.45187873,-0.030661708,-0.08600025,-0.082887344,0.009071933
110,-0.033231337,0.12312367,-0.31528765,0.5647732,0.06763657,-0.057881147,0.25143272,-0.11836627,-0.08459237,0.011635288,-0.16151102,-0.0737648,0.08388552,-0.57379967,0.16374658,0.2283131,0.0018859474,-0.2016416,-0.09303794,0.09312111,-0.117134005,0.37380114,0.15183628,-0.10840092,0.57359666,0.074181385,-0.05043993,-0.44502962,0.11899474,0.050607655,0.24431472,0.59466517,0.05229792,0.16111745,-0.12651408,-0.20550835,0.119507775,-0.08494161,-0.1363233,0.004039803,0.08741609,-0.42667934,0.20042172,-0.38807833,0.23187041,0.0025148708,-0.11641754,0.14425428,-0.028595146,0.14576645,0.311061,0.26727784,-0.13308173,0.1227091,-0.18464263,0.13420922,-0.062372655,0.027620407,-0.20048647,0.2068115,0.037480265,-0.109711155,-0.17934999,0.26524642
111,-0.058721066,-0.089910515,0.47877866,0.26422334,0.039027918,-0.19621356,0.027749842,-0.336352,0.5193814,-0.037668787,-0.46467957,0.007335959,0.3827871,-0.076074995,0.31481275,-0.043117177,0.19679414,0.1533268,0.713867,-0.07036587,-0.36069593,0.35366225,0.016741015,0.06582692,0.32556456,-0.19646376,0.16499256,-0.07592753,0.26003042,-0.2498942,0.15538558,-0.30075544,0.29411042,-0.055974904,0.030577816,0.32513592,-0.10006954,-0.16632062,0.427741,0.6642158,-0.27185106,0.025636261,0.21432151,0.264186,-0.24288344,-0.015973108,0.048882414,-0.10152483,0.29225987,0.55159295,0.18704689,-0.22025526,0.27799487,-0.15186274,0.062637836,-0.13067676,-0.43159062,-0.15502502,0.13378356,0.46539712,-0.014827713,-0.36556804,-0.12196726,0.21345699
112,-0.15669447,0.017078664,0.032714162,-0.5185499,-0.11015064,-0.018076971,-0.20315883,0.10825875,0.1968582,0.21161424,0.027727395,-0.19429997,0.5817169,0.086447,-0.23383613,-0.0051103747,0.23784882,-0.2974121,-0.30180547,-0.07573326,-0.35798195,-0.041478455,-0.61755276,0.3818416,0.26732844,0.2236777,-0.7975238,-0.6393093,-0.04971395,0.06469449,0.0036290416,-0.026224945,0.20174956,-0.32457954,0.22659749,0.13793206,0.22199263,-0.01371093,0.2112335,0.2986712,-0.5362165,0.049857948,0.05979788,0.26290324,-0.024208572,-0.16108173,-0.29699963,0.20338984,-0.2690252,-0.400359,-0.12224134,0.0522581,0.28199503,-0.24095356,0.02710851,-0.35906944,0.18953077,-0.004382266,0.6481396,0.56934154,0.43099555,-0.40404522,0.38037345,0.24720073
113,-0.148242,0.08343309,-0.30647725,0.5160281,0.06809153,-0.18083113,0.16587156,-0.03494769,0.069210224,-0.0074723195,-0.40987906,0.030073214,-0.12283508,0.08450845,-0.08517612,0.9227344,-0.51823837,-0.18798113,0.076840654,-0.11419063,-0.24629,0.06255534,-0.08483156,-0.030524738,0.14374864,-0.33050153,0.09280012,-0.09733019,-0.16115685,-0.38721204,0.04936947,0.02630287,0.11428244,-0.10547128,0.007845797,0.06448176,0.26745728,0.28723016,0.21957545,0.059398662,0.02345025,-0.30272135,0.19184159,-0.08840313,0.07866988,0.06984721,-0.12251237,0.35710514,-0.07132861,-0.1052769,0.27978793,0.40066892,-0.025096877,-0.22938126,0.21515508,0.1471542,0.2829085,0.22575067,-0.28091103,0.14432947,0.07430982,-0.3627274,-0.008512811,0.48858303
114,0.14794418,0.19545451,0.14424665,0.15511377,0.22077566,0.120240755,-0.15094961,-0.16994806,0.056518856,0.26093063,0.021738231,-0.0005183767,0.20513959,-0.009494701,-0.08627299,0.05269512,0.27378854,0.050179653,0.016988406,0.24577245,-0.1145104,0.008781335,-0.27985144,-0.07393568,-0.19223298,0.122322984,-0.0043914826,-0.31668538,-0.25306237,-0.051997878,-0.0005494821,-0.099366345,-0.28127396,0.32686204,0.07677163,-0.03602138,0.0031036355,0.19113195,0.06689772,0.12853692,-0.16942614,0.06805762,-0.028796483,-0.041084427,0.048284356,0.157725,-0.6096461,0.07825292,-0.010691251,-0.14908044,0.08682827,0.2941746,0.15384051,-0.25028992,-0.032859676,0.09932486,0.09758267,-0.10053942,0.39094853,0.055416673,-0.03944932,-0.11408502,-0.14262137,-0.14043213
115,-0.07666617,-0.05497864,0.10790429,0.15131103,-0.2701959,-0.22002512,0.06518007,-0.13674353,-0.11615701,-0.097041965,0.041828673,-0.012667731,0.09030423,-0.25055233,-0.19942395,-0.1070173,0.1397064,-0.14704755,0.18912296,0.17755222,0.2048359,0.20142531,-0.1357313,0.054149926,0.10906827,-0.37549105,-0.13995165,-0.099806495,-0.072224304,-0.32250354,0.2143878,-0.12503406,-0.16047165,-0.004373049,0.33648303,-0.1163055,0.2217486,-0.020526126,0.14613208,-0.06216127,-0.28549415,-0.099695526,0.03614729,0.09984742,-0.4384037,-0.6992937,-0.12341561,0.36658773,0.004484907,-0.157854,0.2906346,-0.15434577,-0.020912036,0.09550998,0.08397772,0.13376878,-0.075646594,-0.16368628,-0.2548712,0.34275782,0.06936379,0.119462065,-0.33749026,-0.1129266
116,-0.1541415,0.16134936,0.3363605,0.45635325,-0.07006031,-0.07569954,0.18490364,0.12413856,0.078616515,-0.50142914,-0.24071455,-0.099403165,-0.08983981,-0.18667069,0.3095078,0.0482645,0.0042656646,-0.22305991,-0.42244208,0.083647266,-0.27661812,0.12094628,0.023752473,-0.029375002,0.18276429,0.16677648,-0.17274487,-0.2655868,-0.14635587,-0.19164012,0.09781614,0.5045295,-0.21817206,0.004059636,-0.12830277,0.09305158,-0.2713046,0.18185766,-0.02180664,0.06623533,-0.09554231,-0.14320517,0.17796752,-0.19164887,0.24463412,-0.010140429,-0.48287407,0.23835957,-0.30291337,-0.115861215,0.04782455,0.42811888,-0.22555591,-0.20205343,0.07446276,-0.004760881,0.10467518,0.20392229,0.052471567,0.2835474,0.2524109,-0.031031605,-0.0081819575,0.10323775
117,0.10394211,0.11932558,0.23794639,0.6177909,0.38931754,-0.006889551,-0.16689721,-0.45749295,0.2670476,-0.057236724,0.42670703,-0.32106113,0.2497019,-0.16917822,0.24325648,0.32111734,-0.30648634,-0.21212545,0.19666217,0.47939157,-0.4313671,0.3698954,0.20915996,-0.093590654,0.9448898,-0.50868565,0.26530227,-0.54244804,-0.16074479,-0.4505302,0.045034695,-0.21999331,-0.2453787,-0.29111814,-0.035371605,0.333532,0.057428934,0.5867713,0.048733603,0.29790902,-0.012793915,0.5236722,0.23572461,-0.216178,0.12516488,0.31017765,-0.20600803,-0.4683055,-0.22356099,0.053825043,0.045951996,-0.021930348,0.44188774,-0.01277774,0.09243976,-0.12704587,-0.09214232,-0.10902879,0.012965308,0.50982726,0.23500866,-0.3020698,0.76047117,0.39231375
118,-0.084038526,-0.2575059,0.30629197,0.23796542,-0.08606943,0.035796195,-0.28118566,-0.124937676,-0.02117317,0.07090555,-0.20335849,-0.043346297,-0.05024538,-0.040113736,0.020019816,-0.2859315,0.11304151,0.06449614,-0.110177256,-0.19036916,0.06773208,-0.029383289,0.14731584,-0.19521318,-0.26753753,0.15713172,0.18478587,0.29331672,0.048863925,-0.045752093,-0.085038476,0.3893286,-0.11629132,0.13310234,-0.15530324,-0.011819338,0.39305153,-0.02220018,-0.27551812,0.17103097,-0.022387683,0.11762808,-0.30333474,0.023502242,-0.07970828,0.20395502,0.014536369,-0.05311342,-0.20723918,0.038446896,-0.042141818,0.018980993,-0.24792548,0.030468045,-0.07888062,0.068072826,0.13158257,-0.38354704,0.66182417,-0.2835763,0.03416337,-0.02224742,0.052666664,0.4432815
119,0.03233089,-0.3995534,-0.25348186,-0.16182514,-0.17619668,-0.18886892,-0.011347211,0.019757569,-0.094785735,-0.18931878,0.32526764,-0.060715254,0.18000665,-0.14875884,0.041926272,-0.02206476,0.097277366,0.1113833,-0.012622214,0.21490276,-0.088715754,0.1260393,0.08193107,-0.11684277,-0.29432258,-0.7557852,0.12104752,0.2984941,-0.3439268,-0.1297862,0.11453198,0.50814253,0.063672796,-0.2878111,0.10652633,-0.062401503,0.07472277,-0.2556464,0.106452525,0.08678069,0.2724382,0.47824386,-0.3943738,0.462965,0.299602,0.13632321,0.26318958,-0.015976463,-0.25324014,-0.4823614,-0.14805232,0.0040340135,-0.069687136,0.25268793,0.21025218,-0.22065072,0.20478517,0.043466687,-0.0061375443,-0.2607744,-0.006937326,0.09267833,-0.04806845,0.8034557
120,-0.03118214,-0.11358321,-0.22259498,-0.21990116,0.12902898,-0.09438854,-0.032160923,-0.05514014,-0.08199132,-0.18391943,0.1908576,-0.23580864,0.2722055,-0.0152516095,-0.1349908,0.024167668,0.19081338,-0.022127405,0.05884028,0.28198475,-0.027465548,0.11049749,-0.124007635,-0.27858475,0.22146356,-0.4430801,0.114804626,-0.12447418,-0.059179988,-0.12243315,-0.03814603,0.06842916,-0.07592302,0.09245683,-0.27031887,-0.09456241,-0.028682275,0.24058914,0.034032,-0.017164363,0.0065856497,0.15844803,-0.110990286,0.24062434,-0.36593944,-0.08753972,-0.12296356,0.29370493,-0.4744952,0.28619006,0.16888654,0.2001577,-0.0994807,0.09485315,0.13347548,-0.03139628,0.08311899,-0.0020234971,0.046143305,-0.21268,0.100029305,0.11199271,-0.08281151,-0.081713155
121,-0.25088748,0.06546875,-0.30273384,0.3122277,0.14103848,0.018405255,0.012144972,-0.71210456,0.10423844,0.012943261,-0.51300746,0.12292015,-0.07138453,0.014781449,0.1004381,-0.0025907753,-0.7527421,-0.0027303952,-0.07775588,-0.27068883,-0.2110619,0.27157596,-0.00050156453,-0.16519397,0.23541594,-0.10302964,0.14313714,0.026045198,-0.1359097,-0.20996022,0.056125753,0.07438813,0.045935877,0.10702869,0.007441478,-0.019108055,0.3260006,0.49743694,-0.120693475,0.17530666,-0.057092875,0.15421699,0.046955463,0.13509573,-0.26333225,0.2876683,-0.13577323,0.019028017,0.19376378,-0.38283017,0.05028999,0.028993912,-0.100110024,-0.015039353,-0.43434656,0.3163256,-0.05647043,0.10345712,-0.09219188,-0.2749032,-0.051240142,-0.06782013,-0.06862159,0.42536598
122,-0.014959397,0.83672476,-0.2381381,0.02917126,0.23834732,-0.041275576,0.018208452,0.09834401,0.2328698,-0.02121026,-0.7033127,-0.024495188,-0.2494256,-0.3607544,0.3336564,0.35483414,0.09506952,0.041478284,-0.052367557,0.12547676,-0.26714945,0.16948664,-0.26838794,-0.15419756,0.3660311,-0.26190266,0.3444833,-0.21938062,0.084911644,-0.07175895,0.017784098,0.11055448,-0.41643927,0.17801918,0.2391962,0.15442246,-0.23389131,0.13806814,0.37183768,0.3094536,-0.29885894,0.28953046,0.15608032,-0.28397644,-0.4257908,-0.24271998,-0.16639264,-0.17050683,-0.15719597,0.4325388,0.082009204,0.11224332,0.018200498,0.055391315,-0.030337587,0.004740605,0.16680822,-0.05565553,0.2830868,-0.2757618,0.07704821,0.15929666,-0.30942813,0.03633014
123,-0.088663496,0.31549793,-0.14848337,-0.09397252,-0.14311121,0.111068055,0.1646849,-0.028477788,-0.20211211,0.09553406,0.24504505,-0.1657519,0.13060707,0.11198301,0.040083826,-0.018359354,0.14758605,0.060614772,-0.020148188,-0.006980237,0.2761497,0.181826,-0.32926983,0.07096814,0.27833188,0.5226593,-0.0051866644,0.250477,0.40606287,0.11138677,0.014109329,-0.09629969,-0.060550384,-0.33222404,-0.31035584,0.013012309,0.24627008,0.31688076,-0.17748922,-0.28128025,0.20033786,0.24716862,-0.09693177,-0.5697335,-0.22506446,-0.13677657,0.085862964,-0.039749566,0.014836883,-0.10051195,0.20657752,-0.017621888,-0.19361852,0.25139138,-0.10233043,0.22841401,0.21967344,0.20758498,0.029715445,0.23771212,-0.209044,0.22573264,-0.22990409,-0.12687188
124,-0.11427996,0.11634529,0.18980943,-0.14942227,-0.08732729,0.14112046,0.13470478,-0.3102063,-0.20811462,0.03314621,0.06546297,-0.10505647,-0.058359493,-0.12493918,-0.14320162,0.052142218,0.32581744,-0.011474346,0.0040051127,0.044535104,-0.24362819,-0.060804334,-0.11266005,0.13107237,0.1702546,0.37737846,-0.52228403,-0.15594482,-0.41318738,0.20674635,0.044685446,0.09786056,0.24422327,-0.17977501,-0.09378379,-0.069427475,0.19102433,0.018754877,-0.062205475,-0.2295428,-0.055940498,-0.23420294,-0.15781593,-0.042024292,0.10583184,-0.23123917,0.09520073,-0.23497516,0.07712707,-0.3888127,-0.30819365,-0.19483194,0.03600574,0.13898544,0.042607088,0.08898777,-0.06994784,0.3154847,0.14426439,0.02088419,-0.054285787,0.32244474,0.024084037,-0.040198132
125,-0.3264457,-0.4370166,0.043370564,0.5239723,-0.1817545,-0.076246805,0.5534621,-0.27828568,-0.65292555,-0.071364485,-0.13126504,0.17037438,-0.15370554,-0.11508777,-0.13976519,-0.4363935,0.5105324,-0.19557227,0.18362269,0.17021,0.32925653,0.33020192,0.1999701,0.11949829,0.7715017,0.3694564,0.09251642,-0.0670555,-0.4284797,0.07461235,0.37344363,0.031171339,-0.39020875,-0.009418949,-0.39145303,-0.02049781,0.389079,0.025733521,-0.053848516,-0.11872234,0.15520559,-0.0231255,0.1246323,-0.055158835,0.49485293,-0.5547128,-0.13786891,0.4065868,-0.32856876,0.35646743,0.14380729,0.30831692,-0.3935771,0.1437144,-0.058528848,0.17459664,-0.09851427,-0.3919029,-0.22679384,0.5200487,0.018327061,0.4288508,0.18248756,0.65174854
126,-0.35618162,-0.27840814,-0.49559453,-0.10342208,0.71584094,-0.21652025,0.4503466,0.06806004,0.18602967,0.05187764,-0.3701044,-0.01397647,0.73129255,-0.011092482,0.1609206,0.4893384,0.14338939,-0.19096494,0.12757634,0.27184337,-0.18706848,-0.0330798,0.035817526,0.30563185,0.4639698,-0.23318747,-0.009694944,-0.09291929,-0.32626608,-0.20488282,0.017819392,0.29261246,-0.067397326,0.022255277,-0.32933572,0.40870962,-0.4676477,0.4616095,0.21418583,0.12819031,-0.2880471,-0.13923132,0.07505561,-0.060654532,0.60560447,-0.14053237,-0.07784728,-0.019183598,-0.20498252,0.17558855,-0.07446962,0.3228175,-0.17038424,-0.252733,0.1582613,-0.16684453,0.2571404,0.11296876,-0.0936921,0.6896136,0.40220472,-0.19705378,0.17372867,0.23720075
127,0.36435992,-0.29893976,0.15226956,-0.059468906,0.4853079,-0.18119238,-0.025860643,-0.16808549,-0.11930609,-0.3274296,0.054942127,-0.15884571,0.019353593,0.006317039,0.30634326,0.0014619175,-0.5372876,-0.024735916,0.17639054,0.017904457,-0.13563436,0.11336659,0.052896515,-0.15281187,-0.33560845,-0.10127769,0.03189594,0.1469662,-0.00266662,-0.03310117,-0.15337105,-0.20520987,0.09542293,0.060791392,-0.064064905,-0.10663226,0.6478871,-0.087598786,-0.15654187,0.010044553,0.048887882,0.48954162,0.13708659,-0.090098135,0.11216432,-0.07270047,-0.054938767,0.24080458,0.26076186,0.0535971,-0.13087747,-0.2706297,-0.23940782,0.09929603,-0.1818354,0.20063502,0.08274398,-0.025899502,0.31275183,0.035558086,0.0041519585,-0.37674364,-0.25511712,-0.11553519
128,0.0994534,-0.009617282,0.06939626,-0.11991516,-0.21137951,-0.06915298,-0.21594027,-0.11279801,-0.075703055,0.54194367,0.02618173,0.32920915,-0.20080855,0.052124586,-0.18690577,0.20114923,-0.12036347,0.06975531,0.0551775,0.2737342,-0.16739103,-0.060865566,-0.4480232,-0.10672005,-0.3082882,0.066020474,-0.12425522,0.14832667,0.16226922,-0.10710778,-0.052259937,0.17158483,-0.075473726,0.47618568,-0.23224637,-0.3227996,-0.075207226,-0.14241956,0.15031421,-0.17504159,0.4317955,0.15107527,0.1762082,-0.019231096,-0.17352821,-0.20008518,-0.049061853,-0.40945464,0.069457464,0.056126706,0.18757366,0.18510945,-0.18641134,-0.22098558,0.097889505,0.018594094,-0.06274216,-0.2995074,-0.033209145,-0.24578832,-0.031782363,0.15871048,-0.02026296,0.10298807
129,0.07612464,0.17714249,-0.07958622,0.095772326,0.14290379,0.20928162,0.021879813,0.24033558,-0.07452511,0.0653394,-0.390585,0.008082019,0.019507706,0.31017667,0.14840412,0.017378606,-0.0519251,0.018181397,-0.03664096,-0.2065051,-0.0062092403,0.094569415,0.12540318,-0.11380235,0.08852851,0.14306007,-0.032599416,-0.18079768,0.16555192,0.31374598,-0.011042008,-0.012342702,0.011208457,-0.172406,0.006637521,0.12158973,-0.1881505,0.19495025,0.31457192,0.15408222,0.09215165,0.10857779,0.07397156,-0.3353437,0.11453616,0.27507192,0.056648538,0.14959587,-0.039964594,0.14804494,0.020592835,0.10524904,0.13701302,-0.05239995,-0.14043902,0.10237672,0.13625081,0.01895601,-0.09143862,-0.23640543,0.18468207,-0.1556457,0.12538831,-0.09460432
130,0.108525686,0.1808937,0.30545637,-0.017116385,-0.3470834,-0.0043612355,0.0036521,0.20008287,-0.05980477,0.071221344,0.29300147,-0.005099941,0.15183002,-0.037989184,0.029089347,0.2796517,-0.060622364,-0.026151968,0.11461815,-0.47519064,-0.054958437,0.061530225,0.048336126,-0.054552875,-0.055575226,0.029245915,0.0030394255,0.04025494,-0.4118602,0.08481973,0.025396004,0.13141711,-0.020432837,-0.11553399,0.10330684,0.1264669,-0.10538946,-0.3917877,0.10411893,0.09082315,-0.19424236,0.088052705,0.04427425,-0.0019534149,0.21331286,0.13333203,-0.22738987,0.035891566,-0.09057937,-0.110253334,0.1255766,0.057647403,-0.15375373,-0.27713156,0.045905173,-0.05140021,-0.04860624,-0.03890642,0.4131483,0.1474807,-0.0031615917,0.15258427,0.03389981,0.009938848
131,-0.10228438,-0.1644431,-0.06352461,0.003413524,-0.006838821,-0.1417711,-0.10548235,-0.065690085,-0.06745775,-0.3387032,0.02444022,-0.20767477,0.46040463,0.10266088,-0.1311907,-0.36824265,0.051931653,0.10489168,0.14555526,0.01075571,0.07227,-0.10929012,-0.013305034,0.027867636,0.2173619,-0.11676738,-0.23125435,0.12271024,-0.3295624,-0.1531642,0.063420914,-0.08552219,-0.09893963,0.021628726,-0.19652887,0.15543489,-0.03512643,0.20725784,-0.1928335,-0.052078567,-0.36964595,0.13564692,-0.11193498,0.050677694,0.07962969,0.28205824,0.22545989,0.05095399,-0.29397082,0.27755797,-0.08363288,0.31485626,0.0694393,0.008846983,0.15109052,0.085331686,0.27582532,-0.063102186,0.13885438,-0.09465299,0.14032632,0.24983847,0.20071948,-0.0037536507
132,0.11088108,-0.24258497,-0.1316659,0.37943596,-0.17081639,0.3154838,-0.19255452,-0.23341978,0.03172372,-0.17696124,-0.1313012,0.066667736,-0.41118854,0.07249363,-0.1560896,-0.102998756,0.073659055,-0.39058718,0.23165646,0.17339598,-0.0892146,-0.23162322,0.030668333,-0.16208205,0.050518833,0.10245954,0.21411873,-0.41821212,0.05641267,0.22520399,-0.1088377,-0.24413101,-0.63629806,-0.043950573,0.11263135,0.11726561,-0.0060621873,-0.032684926,-0.0650617,0.027571812,0.09434032,-0.07562029,0.38926774,-0.3145259,-0.11992861,-0.05283752,-0.22634014,-0.23355918,-0.2923591,0.14257725,-0.3137379,0.13368253,0.16406663,-0.2918349,-0.315772,-0.14745465,-0.017792603,0.015763426,0.16973114,-0.08118291,0.075341724,-0.17789237,0.15976211,0.020297745
133,-0.07980298,0.13861452,-0.24355385,-0.1286319,-0.2609944,0.4527887,-0.17837285,0.20974557,0.094468534,0.015576429,-0.33945173,0.05522841,0.1911772,0.4548438,-0.38759857,-0.16606869,0.29806355,-0.3327709,-0.061206773,-0.2013647,0.17364055,-0.0691177,0.19652377,-0.0729289,-0.21307743,0.027678512,0.31187004,0.029735304,0.0031479814,0.30448708,-0.31521037,-0.42203555,0.032799322,0.12934801,-0.0105420835,0.23767187,-0.23686801,0.15145312,0.040192697,0.015369362,-0.082911976,-0.06336428,-0.15984042,-0.37307918,0.3260982,-0.13753876,0.34827513,0.09316636,-0.32390523,0.13161758,-0.45246005,0.2827403,0.16153872,0.019220198,-0.38714862,0.1400637,-0.035461824,0.06263997,0.21692705,0.074746825,-0.12003588,-0.07788037,0.16207063,-0.19935542
